<?xml version="1.0"?>
<opencv_storage>
<cascade>
  <stageType>BOOST</stageType>
  <featureType>HAAR</featureType>
  <height>24</height>
  <width>24</width>
  <stageParams>
    <boostType>GAB</boostType>
    <minHitRate>9.9500000476837158e-01</minHitRate>
    <maxFalseAlarm>5.0000000000000000e-01</maxFalseAlarm>
    <weightTrimRate>9.4999999999999996e-01</weightTrimRate>
    <maxDepth>1</maxDepth>
    <maxWeakCount>100</maxWeakCount></stageParams>
  <featureParams>
    <maxCatCount>0</maxCatCount>
    <featSize>1</featSize>
    <mode>BASIC</mode></featureParams>
  <stageNum>20</stageNum>
  <stages>
    <!-- stage 0 -->
    <_>
      <maxWeakCount>28</maxWeakCount>
      <stageThreshold>-1.1280603408813477e+00</stageThreshold>
      <weakClassifiers>
        <_>
          <internalNodes>
            0 -1 118 -9.6511796116828918e-02</internalNodes>
          <leafValues>
            8.1355929374694824e-01 4.6833422034978867e-02</leafValues></_>
        <_>
          <internalNodes>
            0 -1 622 2.3948494344949722e-03</internalNodes>
          <leafValues>
            3.3991605043411255e-01 -4.9772879481315613e-01</leafValues></_>
        <_>
          <internalNodes>
            0 -1 312 8.1914976239204407e-02</internalNodes>
          <leafValues>
            -1.1708594113588333e-01 7.2384542226791382e-01</leafValues></_>
        <_>
          <internalNodes>
            0 -1 575 -2.7237948030233383e-02</internalNodes>
          <leafValues>
            4.4814938306808472e-01 -1.9529910385608673e-01</leafValues></_>
        <_>
          <internalNodes>
            0 -1 138 -4.1618749499320984e-02</internalNodes>
          <leafValues>
            5.7101058959960938e-01 -1.0924617946147919e-01</leafValues></_>
        <_>
          <internalNodes>
            0 -1 724 -2.1216902881860733e-02</internalNodes>
          <leafValues>
            -4.3977954983711243e-01 1.5520042181015015e-01</leafValues></_>
        <_>
          <internalNodes>
            0 -1 800 1.8610157072544098e-02</internalNodes>
          <leafValues>
            1.1343878507614136e-01 -5.3745919466018677e-01</leafValues></_>
        <_>
          <internalNodes>
            0 -1 576 -2.3047314956784248e-02</internalNodes>
          <leafValues>
            3.9834535121917725e-01 -1.5440830588340759e-01</leafValues></_>
        <_>
          <internalNodes>
            0 -1 527 1.0459747165441513e-02</internalNodes>
          <leafValues>
            1.2957149744033813e-01 -5.0470077991485596e-01</leafValues></_>
        <_>
          <internalNodes>
            0 -1 1319 -1.3583828695118427e-02</internalNodes>
          <leafValues>
            4.4107022881507874e-01 -1.3126371800899506e-01</leafValues></_>
        <_>
          <internalNodes>
            0 -1 563 2.2238038480281830e-02</internalNodes>
          <leafValues>
            9.6832811832427979e-02 -5.4986107349395752e-01</leafValues></_>
        <_>
          <internalNodes>
            0 -1 549 -1.1700758710503578e-02</internalNodes>
          <leafValues>
            -3.8081142306327820e-01 1.3123966753482819e-01</leafValues></_>
        <_>
          <internalNodes>
            0 -1 180 -1.3287823647260666e-02</internalNodes>
          <leafValues>
            -5.0087141990661621e-01 9.0074829757213593e-02</leafValues></_>
        <_>
          <internalNodes>
            0 -1 87 2.4052845314145088e-02</internalNodes>
          <leafValues>
            -9.4738774001598358e-02 5.4424875974655151e-01</leafValues></_>
        <_>
          <internalNodes>
            0 -1 360 4.9365283921360970e-03</internalNodes>
          <leafValues>
            9.1145321726799011e-02 -5.5735766887664795e-01</leafValues></_>
        <_>
          <internalNodes>
            0 -1 1002 -3.8425647653639317e-03</internalNodes>
          <leafValues>
            -4.1545906662940979e-01 9.2793077230453491e-02</leafValues></_>
        <_>
          <internalNodes>
            0 -1 360 -2.8707624878734350e-03</internalNodes>
          <leafValues>
            -3.9942753314971924e-01 1.0480462759733200e-01</leafValues></_>
        <_>
          <internalNodes>
            0 -1 1094 6.7622080678120255e-04</internalNodes>
          <leafValues>
            1.1546444147825241e-01 -3.2965135574340820e-01</leafValues></_>
        <_>
          <internalNodes>
            0 -1 590 4.8707770183682442e-03</internalNodes>
          <leafValues>
            1.1336070299148560e-01 -3.2917714118957520e-01</leafValues></_>
        <_>
          <internalNodes>
            0 -1 222 -1.3631922006607056e-01</internalNodes>
          <leafValues>
            -3.9870148897171021e-01 1.0364557802677155e-01</leafValues></_>
        <_>
          <internalNodes>
            0 -1 345 9.1478526592254639e-03</internalNodes>
          <leafValues>
            1.0658712685108185e-01 -3.6290991306304932e-01</leafValues></_>
        <_>
          <internalNodes>
            0 -1 674 4.7481423243880272e-03</internalNodes>
          <leafValues>
            -7.9923130571842194e-02 5.4312926530838013e-01</leafValues></_>
        <_>
          <internalNodes>
            0 -1 920 4.3568210676312447e-03</internalNodes>
          <leafValues>
            9.7879528999328613e-02 -4.6047258377075195e-01</leafValues></_>
        <_>
          <internalNodes>
            0 -1 589 -3.7863354664295912e-03</internalNodes>
          <leafValues>
            -4.2529484629631042e-01 9.8408669233322144e-02</leafValues></_>
        <_>
          <internalNodes>
            0 -1 587 1.2456134427338839e-03</internalNodes>
          <leafValues>
            9.7382396459579468e-02 -3.9918148517608643e-01</leafValues></_>
        <_>
          <internalNodes>
            0 -1 662 -4.6298536472022533e-03</internalNodes>
          <leafValues>
            -4.9754562973976135e-01 6.9119758903980255e-02</leafValues></_>
        <_>
          <internalNodes>
            0 -1 661 2.2584269754588604e-03</internalNodes>
          <leafValues>
            1.0015372931957245e-01 -3.9431965351104736e-01</leafValues></_>
        <_>
          <internalNodes>
            0 -1 168 -7.6619661413133144e-03</internalNodes>
          <leafValues>
            -5.7213419675827026e-01 5.9608422219753265e-02</leafValues></_></weakClassifiers></_>
    <!-- stage 1 -->
    <_>
      <maxWeakCount>57</maxWeakCount>
      <stageThreshold>-1.2025490999221802e+00</stageThreshold>
      <weakClassifiers>
        <_>
          <internalNodes>
            0 -1 637 1.4200821518898010e-02</internalNodes>
          <leafValues>
            -5.3630363196134567e-02 5.9563755989074707e-01</leafValues></_>
        <_>
          <internalNodes>
            0 -1 446 4.8708185553550720e-02</internalNodes>
          <leafValues>
            -1.3131229579448700e-01 6.0932606458663940e-01</leafValues></_>
        <_>
          <internalNodes>
            0 -1 462 5.7913333177566528e-02</internalNodes>
          <leafValues>
            1.5393137931823730e-01 -6.3575905561447144e-01</leafValues></_>
        <_>
          <internalNodes>
            0 -1 1314 -2.8343698009848595e-02</internalNodes>
          <leafValues>
            4.8636636137962341e-01 -1.6161610186100006e-01</leafValues></_>
        <_>
          <internalNodes>
            0 -1 335 2.9573436826467514e-02</internalNodes>
          <leafValues>
            1.1198502033948898e-01 -6.0308438539505005e-01</leafValues></_>
        <_>
          <internalNodes>
            0 -1 585 -1.2952471151947975e-02</internalNodes>
          <leafValues>
            6.0437637567520142e-01 -1.0967625677585602e-01</leafValues></_>
        <_>
          <internalNodes>
            0 -1 663 -1.0961206629872322e-02</internalNodes>
          <leafValues>
            5.5975580215454102e-01 -1.1128905415534973e-01</leafValues></_>
        <_>
          <internalNodes>
            0 -1 340 -1.0218404233455658e-02</internalNodes>
          <leafValues>
            -3.5125702619552612e-01 1.2252950668334961e-01</leafValues></_>
        <_>
          <internalNodes>
            0 -1 41 1.3902403414249420e-02</internalNodes>
          <leafValues>
            -1.2300763279199600e-01 3.5406535863876343e-01</leafValues></_>
        <_>
          <internalNodes>
            0 -1 523 -1.2718806043267250e-02</internalNodes>
          <leafValues>
            3.1096336245536804e-01 -1.3884554803371429e-01</leafValues></_>
        <_>
          <internalNodes>
            0 -1 658 -3.2009251415729523e-02</internalNodes>
          <leafValues>
            3.6117261648178101e-01 -9.3720264732837677e-02</leafValues></_>
        <_>
          <internalNodes>
            0 -1 336 -1.6395173966884613e-02</internalNodes>
          <leafValues>
            -4.0047687292098999e-01 9.0317822992801666e-02</leafValues></_>
        <_>
          <internalNodes>
            0 -1 1081 2.8543071821331978e-03</internalNodes>
          <leafValues>
            8.0887623131275177e-02 -4.1979098320007324e-01</leafValues></_>
        <_>
          <internalNodes>
            0 -1 767 7.4897562153637409e-03</internalNodes>
          <leafValues>
            4.4362645596265793e-02 -5.9619563817977905e-01</leafValues></_>
        <_>
          <internalNodes>
            0 -1 629 -9.7642412583809346e-05</internalNodes>
          <leafValues>
            1.2038107961416245e-01 -2.2773279249668121e-01</leafValues></_>
        <_>
          <internalNodes>
            0 -1 520 8.3422437310218811e-03</internalNodes>
          <leafValues>
            7.2165273129940033e-02 -3.9532244205474854e-01</leafValues></_>
        <_>
          <internalNodes>
            0 -1 853 3.0708275735378265e-03</internalNodes>
          <leafValues>
            -6.0370210558176041e-02 4.9212169647216797e-01</leafValues></_>
        <_>
          <internalNodes>
            0 -1 26 1.4299347996711731e-01</internalNodes>
          <leafValues>
            4.0165774524211884e-02 -7.8457129001617432e-01</leafValues></_>
        <_>
          <internalNodes>
            0 -1 942 -2.1316114813089371e-02</internalNodes>
          <leafValues>
            -4.9686554074287415e-01 5.2457928657531738e-02</leafValues></_>
        <_>
          <internalNodes>
            0 -1 867 4.8862667754292488e-03</internalNodes>
          <leafValues>
            -9.0179771184921265e-02 3.4092101454734802e-01</leafValues></_>
        <_>
          <internalNodes>
            0 -1 1124 -9.7846649587154388e-03</internalNodes>
          <leafValues>
            -6.1767613887786865e-01 4.3662905693054199e-02</leafValues></_>
        <_>
          <internalNodes>
            0 -1 1095 8.4629971534013748e-03</internalNodes>
          <leafValues>
            8.0941930413246155e-02 -3.5721334815025330e-01</leafValues></_>
        <_>
          <internalNodes>
            0 -1 357 -1.5635022893548012e-02</internalNodes>
          <leafValues>
            3.2166403532028198e-01 -8.4365621209144592e-02</leafValues></_>
        <_>
          <internalNodes>
            0 -1 974 5.0407717935740948e-03</internalNodes>
          <leafValues>
            9.0049527585506439e-02 -3.2532039284706116e-01</leafValues></_>
        <_>
          <internalNodes>
            0 -1 775 -8.4709674119949341e-03</internalNodes>
          <leafValues>
            5.4873305559158325e-01 -5.1486320793628693e-02</leafValues></_>
        <_>
          <internalNodes>
            0 -1 691 4.6092998236417770e-03</internalNodes>
          <leafValues>
            1.0635145753622055e-01 -2.5645208358764648e-01</leafValues></_>
        <_>
          <internalNodes>
            0 -1 170 -1.4171892404556274e-01</internalNodes>
          <leafValues>
            -5.0247538089752197e-01 5.1974777132272720e-02</leafValues></_>
        <_>
          <internalNodes>
            0 -1 1074 5.5574355646967888e-03</internalNodes>
          <leafValues>
            -5.1381979137659073e-02 5.0366407632827759e-01</leafValues></_>
        <_>
          <internalNodes>
            0 -1 158 -1.5266228467226028e-02</internalNodes>
          <leafValues>
            -3.5393309593200684e-01 6.7776471376419067e-02</leafValues></_>
        <_>
          <internalNodes>
            0 -1 374 -1.2830048799514771e-02</internalNodes>
          <leafValues>
            -4.0544059872627258e-01 5.2722670137882233e-02</leafValues></_>
        <_>
          <internalNodes>
            0 -1 130 2.2774228826165199e-02</internalNodes>
          <leafValues>
            -6.4669288694858551e-02 3.6078315973281860e-01</leafValues></_>
        <_>
          <internalNodes>
            0 -1 350 -2.8336930554360151e-03</internalNodes>
          <leafValues>
            1.4002290368080139e-01 -1.6548033058643341e-01</leafValues></_>
        <_>
          <internalNodes>
            0 -1 763 4.0414528921246529e-03</internalNodes>
          <leafValues>
            1.1333987116813660e-01 -1.9711838662624359e-01</leafValues></_>
        <_>
          <internalNodes>
            0 -1 902 -9.2334888176992536e-04</internalNodes>
          <leafValues>
            2.2625583410263062e-01 -9.4288624823093414e-02</leafValues></_>
        <_>
          <internalNodes>
            0 -1 547 3.3233216963708401e-03</internalNodes>
          <leafValues>
            6.6777028143405914e-02 -3.2141122221946716e-01</leafValues></_>
        <_>
          <internalNodes>
            0 -1 365 3.0094776302576065e-03</internalNodes>
          <leafValues>
            -1.0868972539901733e-01 1.9645524024963379e-01</leafValues></_>
        <_>
          <internalNodes>
            0 -1 1027 3.3947071060538292e-03</internalNodes>
          <leafValues>
            -1.2414097785949707e-01 1.8911896646022797e-01</leafValues></_>
        <_>
          <internalNodes>
            0 -1 205 -1.2076752260327339e-02</internalNodes>
          <leafValues>
            3.1634664535522461e-01 -7.8677214682102203e-02</leafValues></_>
        <_>
          <internalNodes>
            0 -1 430 3.0963323079049587e-03</internalNodes>
          <leafValues>
            6.3313417136669159e-02 -3.4067890048027039e-01</leafValues></_>
        <_>
          <internalNodes>
            0 -1 171 -1.5691074077039957e-03</internalNodes>
          <leafValues>
            2.7672928571701050e-01 -7.8332573175430298e-02</leafValues></_>
        <_>
          <internalNodes>
            0 -1 768 1.7090573906898499e-02</internalNodes>
          <leafValues>
            4.9449130892753601e-02 -4.3987044692039490e-01</leafValues></_>
        <_>
          <internalNodes>
            0 -1 972 -1.6965044662356377e-02</internalNodes>
          <leafValues>
            -2.8780585527420044e-01 7.0163473486900330e-02</leafValues></_>
        <_>
          <internalNodes>
            0 -1 1132 -3.0452869832515717e-03</internalNodes>
          <leafValues>
            3.9312976598739624e-01 -5.9521395713090897e-02</leafValues></_>
        <_>
          <internalNodes>
            0 -1 1178 -1.2971493415534496e-03</internalNodes>
          <leafValues>
            -2.4332611262798309e-01 9.2166468501091003e-02</leafValues></_>
        <_>
          <internalNodes>
            0 -1 1172 -8.3547495305538177e-03</internalNodes>
          <leafValues>
            2.5381061434745789e-01 -8.0334745347499847e-02</leafValues></_>
        <_>
          <internalNodes>
            0 -1 1219 -7.3293168097734451e-03</internalNodes>
          <leafValues>
            3.0767324566841125e-01 -8.2980699837207794e-02</leafValues></_>
        <_>
          <internalNodes>
            0 -1 1179 2.5408687070012093e-03</internalNodes>
          <leafValues>
            7.6117135584354401e-02 -2.8298482298851013e-01</leafValues></_>
        <_>
          <internalNodes>
            0 -1 999 1.0554948449134827e-01</internalNodes>
          <leafValues>
            3.1082531437277794e-02 -6.3953733444213867e-01</leafValues></_>
        <_>
          <internalNodes>
            0 -1 507 2.5806911289691925e-03</internalNodes>
          <leafValues>
            6.3215419650077820e-02 -3.1533226370811462e-01</leafValues></_>
        <_>
          <internalNodes>
            0 -1 508 -8.4061909001320601e-04</internalNodes>
          <leafValues>
            -2.7397304773330688e-01 9.2634752392768860e-02</leafValues></_>
        <_>
          <internalNodes>
            0 -1 1197 2.0745232701301575e-02</internalNodes>
          <leafValues>
            2.7946930378675461e-02 -7.0142561197280884e-01</leafValues></_>
        <_>
          <internalNodes>
            0 -1 1256 -8.1751000834628940e-04</internalNodes>
          <leafValues>
            -2.5307738780975342e-01 7.7217057347297668e-02</leafValues></_>
        <_>
          <internalNodes>
            0 -1 1279 -2.1787455771118402e-03</internalNodes>
          <leafValues>
            3.7170687317848206e-01 -5.2433662116527557e-02</leafValues></_>
        <_>
          <internalNodes>
            0 -1 1258 2.6671076193451881e-03</internalNodes>
          <leafValues>
            8.0761671066284180e-02 -2.3834633827209473e-01</leafValues></_>
        <_>
          <internalNodes>
            0 -1 1280 -9.2518093879334629e-05</internalNodes>
          <leafValues>
            1.3596442341804504e-01 -1.5426073968410492e-01</leafValues></_>
        <_>
          <internalNodes>
            0 -1 1133 6.6161630675196648e-03</internalNodes>
          <leafValues>
            -5.6959815323352814e-02 3.4762808680534363e-01</leafValues></_>
        <_>
          <internalNodes>
            0 -1 757 7.0613720454275608e-03</internalNodes>
          <leafValues>
            4.6264942735433578e-02 -4.4462174177169800e-01</leafValues></_></weakClassifiers></_>
    <!-- stage 2 -->
    <_>
      <maxWeakCount>49</maxWeakCount>
      <stageThreshold>-1.1249811649322510e+00</stageThreshold>
      <weakClassifiers>
        <_>
          <internalNodes>
            0 -1 637 8.4757553413510323e-03</internalNodes>
          <leafValues>
            -4.7244094312191010e-02 5.2822577953338623e-01</leafValues></_>
        <_>
          <internalNodes>
            0 -1 370 1.1996244080364704e-02</internalNodes>
          <leafValues>
            -9.7661003470420837e-02 6.1863350868225098e-01</leafValues></_>
        <_>
          <internalNodes>
            0 -1 666 -1.6515417955815792e-03</internalNodes>
          <leafValues>
            6.0021388530731201e-01 -1.2060000747442245e-01</leafValues></_>
        <_>
          <internalNodes>
            0 -1 700 2.0327433943748474e-02</internalNodes>
          <leafValues>
            1.3197813928127289e-01 -5.7420754432678223e-01</leafValues></_>
        <_>
          <internalNodes>
            0 -1 902 -1.1126241879537702e-03</internalNodes>
          <leafValues>
            3.6689826846122742e-01 -2.0340186357498169e-01</leafValues></_>
        <_>
          <internalNodes>
            0 -1 804 -2.4223178625106812e-02</internalNodes>
          <leafValues>
            -5.4433804750442505e-01 1.3410232961177826e-01</leafValues></_>
        <_>
          <internalNodes>
            0 -1 319 1.3753723353147507e-02</internalNodes>
          <leafValues>
            -1.8468137085437775e-01 3.3418154716491699e-01</leafValues></_>
        <_>
          <internalNodes>
            0 -1 762 -8.3724427968263626e-03</internalNodes>
          <leafValues>
            5.0120967626571655e-01 -1.1290265619754791e-01</leafValues></_>
        <_>
          <internalNodes>
            0 -1 851 2.2931555286049843e-03</internalNodes>
          <leafValues>
            -1.0520306229591370e-01 5.9498667716979980e-01</leafValues></_>
        <_>
          <internalNodes>
            0 -1 501 -2.9045941308140755e-02</internalNodes>
          <leafValues>
            4.3900993466377258e-01 -9.6029102802276611e-02</leafValues></_>
        <_>
          <internalNodes>
            0 -1 1343 -3.0847587622702122e-03</internalNodes>
          <leafValues>
            5.9426718950271606e-01 -8.9818097651004791e-02</leafValues></_>
        <_>
          <internalNodes>
            0 -1 1359 -1.5592982526868582e-03</internalNodes>
          <leafValues>
            4.8761710524559021e-01 -8.3035334944725037e-02</leafValues></_>
        <_>
          <internalNodes>
            0 -1 679 -1.8907121848315001e-03</internalNodes>
          <leafValues>
            5.0278496742248535e-01 -7.2551295161247253e-02</leafValues></_>
        <_>
          <internalNodes>
            0 -1 779 3.1122989021241665e-03</internalNodes>
          <leafValues>
            -4.0712583810091019e-02 7.1591669321060181e-01</leafValues></_>
        <_>
          <internalNodes>
            0 -1 819 -1.6759404679760337e-03</internalNodes>
          <leafValues>
            4.7090557217597961e-01 -7.0119507610797882e-02</leafValues></_>
        <_>
          <internalNodes>
            0 -1 393 3.3538423478603363e-02</internalNodes>
          <leafValues>
            9.9261291325092316e-02 -3.4839287400245667e-01</leafValues></_>
        <_>
          <internalNodes>
            0 -1 434 1.8333690240979195e-02</internalNodes>
          <leafValues>
            5.4402079433202744e-02 -5.0568652153015137e-01</leafValues></_>
        <_>
          <internalNodes>
            0 -1 1297 1.9361407030373812e-03</internalNodes>
          <leafValues>
            -5.4925881326198578e-02 6.5259474515914917e-01</leafValues></_>
        <_>
          <internalNodes>
            0 -1 682 8.7096858769655228e-03</internalNodes>
          <leafValues>
            8.8491290807723999e-02 -4.1163155436515808e-01</leafValues></_>
        <_>
          <internalNodes>
            0 -1 1075 -6.1223682016134262e-02</internalNodes>
          <leafValues>
            -6.0416984558105469e-01 5.1005274057388306e-02</leafValues></_>
        <_>
          <internalNodes>
            0 -1 1307 -2.3301914334297180e-03</internalNodes>
          <leafValues>
            5.1415288448333740e-01 -6.2776207923889160e-02</leafValues></_>
        <_>
          <internalNodes>
            0 -1 1244 2.5488757528364658e-03</internalNodes>
          <leafValues>
            -5.1593121141195297e-02 5.8158075809478760e-01</leafValues></_>
        <_>
          <internalNodes>
            0 -1 85 7.3814615607261658e-03</internalNodes>
          <leafValues>
            -1.1370283365249634e-01 2.6650422811508179e-01</leafValues></_>
        <_>
          <internalNodes>
            0 -1 577 3.0737379565834999e-03</internalNodes>
          <leafValues>
            -4.7858141362667084e-02 6.2035655975341797e-01</leafValues></_>
        <_>
          <internalNodes>
            0 -1 968 -1.8249717354774475e-01</internalNodes>
          <leafValues>
            3.7502741813659668e-01 -8.0755129456520081e-02</leafValues></_>
        <_>
          <internalNodes>
            0 -1 102 3.0453898943960667e-03</internalNodes>
          <leafValues>
            -5.0036299973726273e-02 5.2120572328567505e-01</leafValues></_>
        <_>
          <internalNodes>
            0 -1 907 8.9325627777725458e-04</internalNodes>
          <leafValues>
            -6.3267588615417480e-02 4.2726004123687744e-01</leafValues></_>
        <_>
          <internalNodes>
            0 -1 620 -1.4747073873877525e-02</internalNodes>
          <leafValues>
            -5.5317318439483643e-01 6.0371257364749908e-02</leafValues></_>
        <_>
          <internalNodes>
            0 -1 885 1.1839830316603184e-02</internalNodes>
          <leafValues>
            5.6696891784667969e-02 -4.7079768776893616e-01</leafValues></_>
        <_>
          <internalNodes>
            0 -1 1066 1.9382111495360732e-03</internalNodes>
          <leafValues>
            -6.7178651690483093e-02 4.4755983352661133e-01</leafValues></_>
        <_>
          <internalNodes>
            0 -1 941 1.2480631470680237e-02</internalNodes>
          <leafValues>
            8.0976121127605438e-02 -3.6367624998092651e-01</leafValues></_>
        <_>
          <internalNodes>
            0 -1 934 -8.2613248378038406e-04</internalNodes>
          <leafValues>
            2.7381885051727295e-01 -1.1066120117902756e-01</leafValues></_>
        <_>
          <internalNodes>
            0 -1 633 -1.7152179032564163e-02</internalNodes>
          <leafValues>
            -3.2542863488197327e-01 8.2766667008399963e-02</leafValues></_>
        <_>
          <internalNodes>
            0 -1 577 -2.1856029052287340e-03</internalNodes>
          <leafValues>
            4.9008175730705261e-01 -5.9602256864309311e-02</leafValues></_>
        <_>
          <internalNodes>
            0 -1 1266 -1.3352015987038612e-02</internalNodes>
          <leafValues>
            2.0222198963165283e-01 -1.3522152602672577e-01</leafValues></_>
        <_>
          <internalNodes>
            0 -1 1006 -1.7870275303721428e-02</internalNodes>
          <leafValues>
            -4.7448220849037170e-01 5.6765224784612656e-02</leafValues></_>
        <_>
          <internalNodes>
            0 -1 911 -2.1716691553592682e-03</internalNodes>
          <leafValues>
            5.0004708766937256e-01 -5.7568479329347610e-02</leafValues></_>
        <_>
          <internalNodes>
            0 -1 958 5.5799931287765503e-03</internalNodes>
          <leafValues>
            9.2394419014453888e-02 -3.2106772065162659e-01</leafValues></_>
        <_>
          <internalNodes>
            0 -1 1040 4.3225684203207493e-04</internalNodes>
          <leafValues>
            1.2523083388805389e-01 -2.2357596457004547e-01</leafValues></_>
        <_>
          <internalNodes>
            0 -1 605 2.7465632185339928e-02</internalNodes>
          <leafValues>
            3.5009354352951050e-02 -7.3382246494293213e-01</leafValues></_>
        <_>
          <internalNodes>
            0 -1 1252 3.4406557679176331e-03</internalNodes>
          <leafValues>
            -4.3360125273466110e-02 7.1096181869506836e-01</leafValues></_>
        <_>
          <internalNodes>
            0 -1 755 -1.8905803561210632e-02</internalNodes>
          <leafValues>
            -4.2196312546730042e-01 7.1076899766921997e-02</leafValues></_>
        <_>
          <internalNodes>
            0 -1 176 1.8517847638577223e-03</internalNodes>
          <leafValues>
            -5.0197552889585495e-02 5.6337553262710571e-01</leafValues></_>
        <_>
          <internalNodes>
            0 -1 354 2.5072464719414711e-02</internalNodes>
          <leafValues>
            4.9989353865385056e-02 -6.2026137113571167e-01</leafValues></_>
        <_>
          <internalNodes>
            0 -1 98 5.6703887879848480e-02</internalNodes>
          <leafValues>
            4.4736154377460480e-02 -5.3877377510070801e-01</leafValues></_>
        <_>
          <internalNodes>
            0 -1 1168 2.7850111946463585e-03</internalNodes>
          <leafValues>
            -4.4634398072957993e-02 6.7378050088882446e-01</leafValues></_>
        <_>
          <internalNodes>
            0 -1 560 -1.9944226741790771e-01</internalNodes>
          <leafValues>
            -9.1580313444137573e-01 3.3943410962820053e-02</leafValues></_>
        <_>
          <internalNodes>
            0 -1 195 8.6542796343564987e-03</internalNodes>
          <leafValues>
            5.7931866496801376e-02 -3.8853839039802551e-01</leafValues></_>
        <_>
          <internalNodes>
            0 -1 382 -2.8541141655296087e-03</internalNodes>
          <leafValues>
            4.2909079790115356e-01 -6.6646054387092590e-02</leafValues></_></weakClassifiers></_>
    <!-- stage 3 -->
    <_>
      <maxWeakCount>62</maxWeakCount>
      <stageThreshold>-1.0769491195678711e+00</stageThreshold>
      <weakClassifiers>
        <_>
          <internalNodes>
            0 -1 231 2.4552132934331894e-02</internalNodes>
          <leafValues>
            -2.1327015012502670e-02 5.9227222204208374e-01</leafValues></_>
        <_>
          <internalNodes>
            0 -1 441 1.2578483670949936e-02</internalNodes>
          <leafValues>
            -6.1818022280931473e-02 7.2522979974746704e-01</leafValues></_>
        <_>
          <internalNodes>
            0 -1 259 -1.4534620568156242e-02</internalNodes>
          <leafValues>
            6.9501423835754395e-01 -1.2997624278068542e-01</leafValues></_>
        <_>
          <internalNodes>
            0 -1 131 -5.8892190456390381e-02</internalNodes>
          <leafValues>
            4.1556885838508606e-01 -1.2219988554716110e-01</leafValues></_>
        <_>
          <internalNodes>
            0 -1 677 1.7748616635799408e-02</internalNodes>
          <leafValues>
            -2.2270727157592773e-01 2.0961512625217438e-01</leafValues></_>
        <_>
          <internalNodes>
            0 -1 1011 1.2805482372641563e-02</internalNodes>
          <leafValues>
            -7.3474682867527008e-02 6.3092583417892456e-01</leafValues></_>
        <_>
          <internalNodes>
            0 -1 915 2.1966548636555672e-02</internalNodes>
          <leafValues>
            7.2256714105606079e-02 -6.3189846277236938e-01</leafValues></_>
        <_>
          <internalNodes>
            0 -1 1064 -3.3501302823424339e-03</internalNodes>
          <leafValues>
            4.1760733723640442e-01 -1.0544956475496292e-01</leafValues></_>
        <_>
          <internalNodes>
            0 -1 540 7.1954019367694855e-03</internalNodes>
          <leafValues>
            7.5070545077323914e-02 -4.9601936340332031e-01</leafValues></_>
        <_>
          <internalNodes>
            0 -1 810 -1.0739590041339397e-02</internalNodes>
          <leafValues>
            -4.0983971953392029e-01 7.2106637060642242e-02</leafValues></_>
        <_>
          <internalNodes>
            0 -1 589 -5.8039934374392033e-03</internalNodes>
          <leafValues>
            -5.1858919858932495e-01 5.5779956281185150e-02</leafValues></_>
        <_>
          <internalNodes>
            0 -1 276 -3.3980332314968109e-02</internalNodes>
          <leafValues>
            -3.1383070349693298e-01 9.4719566404819489e-02</leafValues></_>
        <_>
          <internalNodes>
            0 -1 363 -2.1988064050674438e-02</internalNodes>
          <leafValues>
            -5.3246825933456421e-01 4.8991534858942032e-02</leafValues></_>
        <_>
          <internalNodes>
            0 -1 506 1.8288763239979744e-02</internalNodes>
          <leafValues>
            -5.6569617241621017e-02 5.4868996143341064e-01</leafValues></_>
        <_>
          <internalNodes>
            0 -1 66 1.5805803239345551e-02</internalNodes>
          <leafValues>
            -1.2956987321376801e-01 2.2143603861331940e-01</leafValues></_>
        <_>
          <internalNodes>
            0 -1 1007 1.2865912169218063e-02</internalNodes>
          <leafValues>
            -9.6224687993526459e-02 3.1806850433349609e-01</leafValues></_>
        <_>
          <internalNodes>
            0 -1 835 2.7874121442437172e-03</internalNodes>
          <leafValues>
            9.3594714999198914e-02 -3.1291380524635315e-01</leafValues></_>
        <_>
          <internalNodes>
            0 -1 722 1.3432640116661787e-03</internalNodes>
          <leafValues>
            1.2572006881237030e-01 -2.4444866180419922e-01</leafValues></_>
        <_>
          <internalNodes>
            0 -1 1085 3.6861521657556295e-03</internalNodes>
          <leafValues>
            6.5687686204910278e-02 -3.7845695018768311e-01</leafValues></_>
        <_>
          <internalNodes>
            0 -1 111 3.2284779008477926e-03</internalNodes>
          <leafValues>
            -7.5729280710220337e-02 3.7153977155685425e-01</leafValues></_>
        <_>
          <internalNodes>
            0 -1 1194 -5.1286492496728897e-02</internalNodes>
          <leafValues>
            2.5245183706283569e-01 -1.1285042017698288e-01</leafValues></_>
        <_>
          <internalNodes>
            0 -1 208 -3.9786979556083679e-02</internalNodes>
          <leafValues>
            4.4210818409919739e-01 -6.6589392721652985e-02</leafValues></_>
        <_>
          <internalNodes>
            0 -1 1017 8.4394039586186409e-03</internalNodes>
          <leafValues>
            -8.8682711124420166e-02 3.0183738470077515e-01</leafValues></_>
        <_>
          <internalNodes>
            0 -1 1070 -2.9356570448726416e-03</internalNodes>
          <leafValues>
            -3.7507864832878113e-01 7.4695952236652374e-02</leafValues></_>
        <_>
          <internalNodes>
            0 -1 1057 2.1188817918300629e-03</internalNodes>
          <leafValues>
            -6.8534299731254578e-02 4.1034528613090515e-01</leafValues></_>
        <_>
          <internalNodes>
            0 -1 256 7.5096346437931061e-02</internalNodes>
          <leafValues>
            4.7683663666248322e-02 -6.2323868274688721e-01</leafValues></_>
        <_>
          <internalNodes>
            0 -1 1057 -9.9726463668048382e-04</internalNodes>
          <leafValues>
            2.8154203295707703e-01 -9.7147382795810699e-02</leafValues></_>
        <_>
          <internalNodes>
            0 -1 1068 1.9217717926949263e-03</internalNodes>
          <leafValues>
            8.0695174634456635e-02 -3.5566097497940063e-01</leafValues></_>
        <_>
          <internalNodes>
            0 -1 307 7.7853011898696423e-03</internalNodes>
          <leafValues>
            -1.5466132760047913e-01 1.6270741820335388e-01</leafValues></_>
        <_>
          <internalNodes>
            0 -1 331 4.9574226140975952e-03</internalNodes>
          <leafValues>
            7.1482345461845398e-02 -3.6326223611831665e-01</leafValues></_>
        <_>
          <internalNodes>
            0 -1 940 2.4444698356091976e-03</internalNodes>
          <leafValues>
            -7.7936194837093353e-02 3.3761435747146606e-01</leafValues></_>
        <_>
          <internalNodes>
            0 -1 14 1.3398206233978271e-01</internalNodes>
          <leafValues>
            3.5135582089424133e-02 -7.1002697944641113e-01</leafValues></_>
        <_>
          <internalNodes>
            0 -1 1183 8.9452991960570216e-04</internalNodes>
          <leafValues>
            8.5152745246887207e-02 -2.5236827135086060e-01</leafValues></_>
        <_>
          <internalNodes>
            0 -1 1018 -4.5309802517294884e-03</internalNodes>
          <leafValues>
            3.7517210841178894e-01 -6.4679861068725586e-02</leafValues></_>
        <_>
          <internalNodes>
            0 -1 183 6.6664658486843109e-02</internalNodes>
          <leafValues>
            2.6785196736454964e-02 -8.3037787675857544e-01</leafValues></_>
        <_>
          <internalNodes>
            0 -1 1033 -8.6275220382958651e-04</internalNodes>
          <leafValues>
            2.5106540322303772e-01 -8.9667998254299164e-02</leafValues></_>
        <_>
          <internalNodes>
            0 -1 386 -7.2985852602869272e-04</internalNodes>
          <leafValues>
            -2.3794475197792053e-01 9.6737742424011230e-02</leafValues></_>
        <_>
          <internalNodes>
            0 -1 302 -4.9412441439926624e-03</internalNodes>
          <leafValues>
            6.0502260923385620e-01 -3.6751881241798401e-02</leafValues></_>
        <_>
          <internalNodes>
            0 -1 1185 -4.0333596989512444e-03</internalNodes>
          <leafValues>
            -3.0525928735733032e-01 7.4717991054058075e-02</leafValues></_>
        <_>
          <internalNodes>
            0 -1 870 5.3439908660948277e-03</internalNodes>
          <leafValues>
            -1.2139559537172318e-01 1.9962713122367859e-01</leafValues></_>
        <_>
          <internalNodes>
            0 -1 1207 -5.9464143123477697e-04</internalNodes>
          <leafValues>
            2.2941602766513824e-01 -1.0230304300785065e-01</leafValues></_>
        <_>
          <internalNodes>
            0 -1 569 -8.3743094000965357e-04</internalNodes>
          <leafValues>
            -1.8143142759799957e-01 1.2432729452848434e-01</leafValues></_>
        <_>
          <internalNodes>
            0 -1 32 6.8043462932109833e-02</internalNodes>
          <leafValues>
            -4.5221097767353058e-02 5.1678913831710815e-01</leafValues></_>
        <_>
          <internalNodes>
            0 -1 369 2.5721141137182713e-03</internalNodes>
          <leafValues>
            -1.1771561950445175e-01 1.8992684781551361e-01</leafValues></_>
        <_>
          <internalNodes>
            0 -1 947 -3.0141691677272320e-03</internalNodes>
          <leafValues>
            -3.4947443008422852e-01 5.9647481888532639e-02</leafValues></_>
        <_>
          <internalNodes>
            0 -1 1279 -1.3921002391725779e-03</internalNodes>
          <leafValues>
            2.9472783207893372e-01 -7.5998499989509583e-02</leafValues></_>
        <_>
          <internalNodes>
            0 -1 936 3.0110704246908426e-03</internalNodes>
          <leafValues>
            5.8200355619192123e-02 -4.0398624539375305e-01</leafValues></_>
        <_>
          <internalNodes>
            0 -1 1345 -2.3908047005534172e-03</internalNodes>
          <leafValues>
            2.7478870749473572e-01 -8.2066491246223450e-02</leafValues></_>
        <_>
          <internalNodes>
            0 -1 1003 -2.8151441365480423e-02</internalNodes>
          <leafValues>
            4.1686227917671204e-01 -4.9315713346004486e-02</leafValues></_>
        <_>
          <internalNodes>
            0 -1 742 3.7039252929389477e-03</internalNodes>
          <leafValues>
            7.7726818621158600e-02 -2.5477042794227600e-01</leafValues></_>
        <_>
          <internalNodes>
            0 -1 1089 -9.7949884366244078e-04</internalNodes>
          <leafValues>
            2.4097219109535217e-01 -8.1786803901195526e-02</leafValues></_>
        <_>
          <internalNodes>
            0 -1 1106 4.6923956833779812e-03</internalNodes>
          <leafValues>
            4.9963317811489105e-02 -4.1404429078102112e-01</leafValues></_>
        <_>
          <internalNodes>
            0 -1 1089 1.7922183033078909e-03</internalNodes>
          <leafValues>
            -5.6145887821912766e-02 3.5942152142524719e-01</leafValues></_>
        <_>
          <internalNodes>
            0 -1 1155 5.7478505186736584e-03</internalNodes>
          <leafValues>
            5.5646274238824844e-02 -3.2252481579780579e-01</leafValues></_>
        <_>
          <internalNodes>
            0 -1 387 5.9440955519676208e-02</internalNodes>
          <leafValues>
            -5.8922164142131805e-02 3.5999909043312073e-01</leafValues></_>
        <_>
          <internalNodes>
            0 -1 1001 4.2266108095645905e-02</internalNodes>
          <leafValues>
            -5.1138158887624741e-02 3.4184494614601135e-01</leafValues></_>
        <_>
          <internalNodes>
            0 -1 129 -1.8891689833253622e-03</internalNodes>
          <leafValues>
            3.0392214655876160e-01 -6.3816323876380920e-02</leafValues></_>
        <_>
          <internalNodes>
            0 -1 1289 1.6215690411627293e-03</internalNodes>
          <leafValues>
            7.0157527923583984e-02 -3.0310913920402527e-01</leafValues></_>
        <_>
          <internalNodes>
            0 -1 1254 -1.0270338505506516e-02</internalNodes>
          <leafValues>
            5.2063775062561035e-01 -3.8585223257541656e-02</leafValues></_>
        <_>
          <internalNodes>
            0 -1 976 8.0398172140121460e-03</internalNodes>
          <leafValues>
            4.1152570396661758e-02 -5.0290673971176147e-01</leafValues></_>
        <_>
          <internalNodes>
            0 -1 1220 -2.8142798691987991e-03</internalNodes>
          <leafValues>
            4.2481255531311035e-01 -4.7231055796146393e-02</leafValues></_>
        <_>
          <internalNodes>
            0 -1 204 3.2930299639701843e-02</internalNodes>
          <leafValues>
            -5.5496923625469208e-02 3.4473425149917603e-01</leafValues></_></weakClassifiers></_>
    <!-- stage 4 -->
    <_>
      <maxWeakCount>47</maxWeakCount>
      <stageThreshold>-1.1327927112579346e+00</stageThreshold>
      <weakClassifiers>
        <_>
          <internalNodes>
            0 -1 543 -1.3258809223771095e-02</internalNodes>
          <leafValues>
            -1.6834531724452972e-01 4.8459869623184204e-01</leafValues></_>
        <_>
          <internalNodes>
            0 -1 736 -7.3700058273971081e-03</internalNodes>
          <leafValues>
            -5.3379082679748535e-01 1.5650549530982971e-01</leafValues></_>
        <_>
          <internalNodes>
            0 -1 1102 9.4569846987724304e-03</internalNodes>
          <leafValues>
            1.3171903789043427e-01 -4.9454864859580994e-01</leafValues></_>
        <_>
          <internalNodes>
            0 -1 371 2.0423793792724609e-01</internalNodes>
          <leafValues>
            -1.7441964149475098e-01 3.8853737711906433e-01</leafValues></_>
        <_>
          <internalNodes>
            0 -1 10 2.7540320530533791e-02</internalNodes>
          <leafValues>
            -8.2793541252613068e-02 6.9905853271484375e-01</leafValues></_>
        <_>
          <internalNodes>
            0 -1 625 -8.0501232296228409e-03</internalNodes>
          <leafValues>
            -5.5537039041519165e-01 7.3722101747989655e-02</leafValues></_>
        <_>
          <internalNodes>
            0 -1 465 1.2295496650040150e-02</internalNodes>
          <leafValues>
            8.8490217924118042e-02 -5.1035386323928833e-01</leafValues></_>
        <_>
          <internalNodes>
            0 -1 449 -8.8560245931148529e-03</internalNodes>
          <leafValues>
            -4.5642530918121338e-01 9.7805380821228027e-02</leafValues></_>
        <_>
          <internalNodes>
            0 -1 685 -1.7169711645692587e-03</internalNodes>
          <leafValues>
            -4.0700447559356689e-01 1.0325850546360016e-01</leafValues></_>
        <_>
          <internalNodes>
            0 -1 824 -1.2839322909712791e-02</internalNodes>
          <leafValues>
            -4.0690568089485168e-01 1.0611899942159653e-01</leafValues></_>
        <_>
          <internalNodes>
            0 -1 922 -2.2772788070142269e-03</internalNodes>
          <leafValues>
            -4.0556457638740540e-01 1.1282953619956970e-01</leafValues></_>
        <_>
          <internalNodes>
            0 -1 21 2.8152875602245331e-02</internalNodes>
          <leafValues>
            -1.1820719391107559e-01 3.1973689794540405e-01</leafValues></_>
        <_>
          <internalNodes>
            0 -1 929 -1.5874650329351425e-02</internalNodes>
          <leafValues>
            -4.9846163392066956e-01 6.0305248945951462e-02</leafValues></_>
        <_>
          <internalNodes>
            0 -1 43 5.5567156523466110e-02</internalNodes>
          <leafValues>
            2.6945194229483604e-02 -8.0584847927093506e-01</leafValues></_>
        <_>
          <internalNodes>
            0 -1 878 -1.3749321922659874e-02</internalNodes>
          <leafValues>
            -3.6726716160774231e-01 9.3528844416141510e-02</leafValues></_>
        <_>
          <internalNodes>
            0 -1 300 4.9089580774307251e-02</internalNodes>
          <leafValues>
            -4.3139085173606873e-02 8.4389227628707886e-01</leafValues></_>
        <_>
          <internalNodes>
            0 -1 689 1.1280176695436239e-03</internalNodes>
          <leafValues>
            1.3894088566303253e-01 -2.5862920284271240e-01</leafValues></_>
        <_>
          <internalNodes>
            0 -1 538 6.5072653815150261e-03</internalNodes>
          <leafValues>
            6.5844357013702393e-02 -4.2142337560653687e-01</leafValues></_>
        <_>
          <internalNodes>
            0 -1 584 1.3638734817504883e-02</internalNodes>
          <leafValues>
            -5.7792656123638153e-02 6.4491111040115356e-01</leafValues></_>
        <_>
          <internalNodes>
            0 -1 1137 3.3092722296714783e-03</internalNodes>
          <leafValues>
            8.3451308310031891e-02 -4.1545325517654419e-01</leafValues></_>
        <_>
          <internalNodes>
            0 -1 910 1.0284477472305298e-01</internalNodes>
          <leafValues>
            4.1595667600631714e-02 -7.2719269990921021e-01</leafValues></_>
        <_>
          <internalNodes>
            0 -1 75 -2.9062968678772449e-03</internalNodes>
          <leafValues>
            4.3177288770675659e-01 -7.9800143837928772e-02</leafValues></_>
        <_>
          <internalNodes>
            0 -1 1144 -4.4842190109193325e-03</internalNodes>
          <leafValues>
            -3.9037114381790161e-01 8.6272336542606354e-02</leafValues></_>
        <_>
          <internalNodes>
            0 -1 137 -4.4887203723192215e-02</internalNodes>
          <leafValues>
            3.9855289459228516e-01 -8.2874767482280731e-02</leafValues></_>
        <_>
          <internalNodes>
            0 -1 840 -4.4337236322462559e-03</internalNodes>
          <leafValues>
            -3.4184864163398743e-01 8.7496995925903320e-02</leafValues></_>
        <_>
          <internalNodes>
            0 -1 1363 -3.0079027637839317e-03</internalNodes>
          <leafValues>
            5.5746531486511230e-01 -5.3614296019077301e-02</leafValues></_>
        <_>
          <internalNodes>
            0 -1 390 1.2606635689735413e-01</internalNodes>
          <leafValues>
            5.2181687206029892e-02 -5.8677417039871216e-01</leafValues></_>
        <_>
          <internalNodes>
            0 -1 1041 -3.8952697068452835e-03</internalNodes>
          <leafValues>
            -2.7049666643142700e-01 1.0161221027374268e-01</leafValues></_>
        <_>
          <internalNodes>
            0 -1 161 -2.2299396805465221e-03</internalNodes>
          <leafValues>
            -3.2583072781562805e-01 8.1188060343265533e-02</leafValues></_>
        <_>
          <internalNodes>
            0 -1 97 5.9164345264434814e-02</internalNodes>
          <leafValues>
            -5.2710924297571182e-02 5.1652270555496216e-01</leafValues></_>
        <_>
          <internalNodes>
            0 -1 488 -4.0558059699833393e-03</internalNodes>
          <leafValues>
            -3.9374807476997375e-01 7.6393567025661469e-02</leafValues></_>
        <_>
          <internalNodes>
            0 -1 496 -2.8859652578830719e-02</internalNodes>
          <leafValues>
            -3.8225895166397095e-01 6.4770936965942383e-02</leafValues></_>
        <_>
          <internalNodes>
            0 -1 445 -2.4170082062482834e-02</internalNodes>
          <leafValues>
            6.1652213335037231e-01 -4.2635761201381683e-02</leafValues></_>
        <_>
          <internalNodes>
            0 -1 308 1.3964883983135223e-02</internalNodes>
          <leafValues>
            -6.3786201179027557e-02 4.4704779982566833e-01</leafValues></_>
        <_>
          <internalNodes>
            0 -1 1294 1.4540411066263914e-03</internalNodes>
          <leafValues>
            8.4226690232753754e-02 -3.0283722281455994e-01</leafValues></_>
        <_>
          <internalNodes>
            0 -1 69 2.4855788797140121e-02</internalNodes>
          <leafValues>
            4.1765782982110977e-02 -5.4980349540710449e-01</leafValues></_>
        <_>
          <internalNodes>
            0 -1 453 1.6161124408245087e-01</internalNodes>
          <leafValues>
            2.7234083041548729e-02 -7.9634624719619751e-01</leafValues></_>
        <_>
          <internalNodes>
            0 -1 1161 2.2529759444296360e-03</internalNodes>
          <leafValues>
            6.7922368645668030e-02 -3.5389009118080139e-01</leafValues></_>
        <_>
          <internalNodes>
            0 -1 1120 -2.4100296199321747e-02</internalNodes>
          <leafValues>
            -4.5394039154052734e-01 5.1866695284843445e-02</leafValues></_>
        <_>
          <internalNodes>
            0 -1 906 2.9123399872332811e-03</internalNodes>
          <leafValues>
            -5.6595034897327423e-02 4.4098767638206482e-01</leafValues></_>
        <_>
          <internalNodes>
            0 -1 255 -1.1794837191700935e-02</internalNodes>
          <leafValues>
            -3.3584594726562500e-01 7.3898024857044220e-02</leafValues></_>
        <_>
          <internalNodes>
            0 -1 781 -1.0883773211389780e-03</internalNodes>
          <leafValues>
            -1.9178503751754761e-01 1.2975464761257172e-01</leafValues></_>
        <_>
          <internalNodes>
            0 -1 930 3.3667834941297770e-03</internalNodes>
          <leafValues>
            -5.7001885026693344e-02 4.4333484768867493e-01</leafValues></_>
        <_>
          <internalNodes>
            0 -1 275 3.0254106968641281e-03</internalNodes>
          <leafValues>
            8.0193884670734406e-02 -2.9656970500946045e-01</leafValues></_>
        <_>
          <internalNodes>
            0 -1 27 -4.7117272019386292e-01</internalNodes>
          <leafValues>
            -6.6301399469375610e-01 3.1812813133001328e-02</leafValues></_>
        <_>
          <internalNodes>
            0 -1 420 -7.0269674062728882e-02</internalNodes>
          <leafValues>
            5.8739966154098511e-01 -4.2549967765808105e-02</leafValues></_>
        <_>
          <internalNodes>
            0 -1 1010 3.7384843453764915e-03</internalNodes>
          <leafValues>
            7.0199042558670044e-02 -3.3473646640777588e-01</leafValues></_></weakClassifiers></_>
    <!-- stage 5 -->
    <_>
      <maxWeakCount>42</maxWeakCount>
      <stageThreshold>-1.2801709175109863e+00</stageThreshold>
      <weakClassifiers>
        <_>
          <internalNodes>
            0 -1 15 -1.9079017639160156e-01</internalNodes>
          <leafValues>
            -4.8769575357437134e-01 4.7708576917648315e-01</leafValues></_>
        <_>
          <internalNodes>
            0 -1 1314 -1.5908382833003998e-02</internalNodes>
          <leafValues>
            4.6021237969398499e-01 -2.1467874944210052e-01</leafValues></_>
        <_>
          <internalNodes>
            0 -1 832 -1.1006859131157398e-03</internalNodes>
          <leafValues>
            6.2105286121368408e-01 -1.4785437285900116e-01</leafValues></_>
        <_>
          <internalNodes>
            0 -1 832 1.4150636270642281e-03</internalNodes>
          <leafValues>
            -1.4978991448879242e-01 6.0995358228683472e-01</leafValues></_>
        <_>
          <internalNodes>
            0 -1 1349 2.8039603494107723e-03</internalNodes>
          <leafValues>
            -1.1678975820541382e-01 6.0345137119293213e-01</leafValues></_>
        <_>
          <internalNodes>
            0 -1 1348 -1.6713379882276058e-03</internalNodes>
          <leafValues>
            5.7626247406005859e-01 -1.0593247413635254e-01</leafValues></_>
        <_>
          <internalNodes>
            0 -1 879 3.1466889195144176e-03</internalNodes>
          <leafValues>
            1.6917775571346283e-01 -4.0840804576873779e-01</leafValues></_>
        <_>
          <internalNodes>
            0 -1 28 3.0001192353665829e-03</internalNodes>
          <leafValues>
            -1.6624763607978821e-01 3.8300788402557373e-01</leafValues></_>
        <_>
          <internalNodes>
            0 -1 54 -9.4996707048267126e-04</internalNodes>
          <leafValues>
            4.3168038129806519e-01 -1.4966964721679688e-01</leafValues></_>
        <_>
          <internalNodes>
            0 -1 127 2.5859461165964603e-03</internalNodes>
          <leafValues>
            -6.6775813698768616e-02 6.2951350212097168e-01</leafValues></_>
        <_>
          <internalNodes>
            0 -1 405 -7.0508813951164484e-04</internalNodes>
          <leafValues>
            3.3857259154319763e-01 -1.1542732268571854e-01</leafValues></_>
        <_>
          <internalNodes>
            0 -1 396 1.6952573787420988e-03</internalNodes>
          <leafValues>
            -6.4038984477519989e-02 5.2614253759384155e-01</leafValues></_>
        <_>
          <internalNodes>
            0 -1 864 2.3842670489102602e-03</internalNodes>
          <leafValues>
            -7.2135612368583679e-02 5.2552795410156250e-01</leafValues></_>
        <_>
          <internalNodes>
            0 -1 707 -6.3634938560426235e-03</internalNodes>
          <leafValues>
            -3.9324882626533508e-01 9.3795932829380035e-02</leafValues></_>
        <_>
          <internalNodes>
            0 -1 853 1.6973719466477633e-03</internalNodes>
          <leafValues>
            -9.2243239283561707e-02 3.9406391978263855e-01</leafValues></_>
        <_>
          <internalNodes>
            0 -1 159 -1.7577740363776684e-03</internalNodes>
          <leafValues>
            4.7385889291763306e-01 -6.5576761960983276e-02</leafValues></_>
        <_>
          <internalNodes>
            0 -1 711 -5.9789353981614113e-03</internalNodes>
          <leafValues>
            -2.6349812746047974e-01 1.2788634002208710e-01</leafValues></_>
        <_>
          <internalNodes>
            0 -1 566 -4.5771738514304161e-03</internalNodes>
          <leafValues>
            -3.8581699132919312e-01 9.2273853719234467e-02</leafValues></_>
        <_>
          <internalNodes>
            0 -1 1204 -1.6065348172560334e-03</internalNodes>
          <leafValues>
            4.7589260339736938e-01 -7.1869485080242157e-02</leafValues></_>
        <_>
          <internalNodes>
            0 -1 758 2.0850037690252066e-03</internalNodes>
          <leafValues>
            -6.0290187597274780e-02 4.6850216388702393e-01</leafValues></_>
        <_>
          <internalNodes>
            0 -1 683 -4.5542260631918907e-03</internalNodes>
          <leafValues>
            -3.1139069795608521e-01 1.0483342409133911e-01</leafValues></_>
        <_>
          <internalNodes>
            0 -1 1174 2.1522985771298409e-03</internalNodes>
          <leafValues>
            -4.2398866266012192e-02 8.1039953231811523e-01</leafValues></_>
        <_>
          <internalNodes>
            0 -1 1158 -7.9137767897918820e-04</internalNodes>
          <leafValues>
            3.1392425298690796e-01 -8.2216821610927582e-02</leafValues></_>
        <_>
          <internalNodes>
            0 -1 659 -1.3043154031038284e-03</internalNodes>
          <leafValues>
            3.4275871515274048e-01 -8.7352164089679718e-02</leafValues></_>
        <_>
          <internalNodes>
            0 -1 541 2.6016861200332642e-02</internalNodes>
          <leafValues>
            5.8675330132246017e-02 -4.8420301079750061e-01</leafValues></_>
        <_>
          <internalNodes>
            0 -1 1357 1.4167861081659794e-03</internalNodes>
          <leafValues>
            -6.2469620257616043e-02 5.1738399267196655e-01</leafValues></_>
        <_>
          <internalNodes>
            0 -1 881 -1.4150023460388184e-01</internalNodes>
          <leafValues>
            7.0934909582138062e-01 -3.4402295947074890e-02</leafValues></_>
        <_>
          <internalNodes>
            0 -1 898 4.8410641029477119e-03</internalNodes>
          <leafValues>
            1.0636293888092041e-01 -3.0421522259712219e-01</leafValues></_>
        <_>
          <internalNodes>
            0 -1 841 2.2567617706954479e-03</internalNodes>
          <leafValues>
            -5.8601219207048416e-02 5.7487207651138306e-01</leafValues></_>
        <_>
          <internalNodes>
            0 -1 1198 3.1012780964374542e-03</internalNodes>
          <leafValues>
            7.2421610355377197e-02 -4.4680437445640564e-01</leafValues></_>
        <_>
          <internalNodes>
            0 -1 1288 1.4118175022304058e-03</internalNodes>
          <leafValues>
            -6.1735834926366806e-02 5.7327133417129517e-01</leafValues></_>
        <_>
          <internalNodes>
            0 -1 784 1.5419094124808908e-03</internalNodes>
          <leafValues>
            -5.6010145694017410e-02 4.2089110612869263e-01</leafValues></_>
        <_>
          <internalNodes>
            0 -1 76 2.3590961936861277e-03</internalNodes>
          <leafValues>
            -3.5269986838102341e-02 6.6045731306076050e-01</leafValues></_>
        <_>
          <internalNodes>
            0 -1 280 -1.3888327404856682e-02</internalNodes>
          <leafValues>
            4.4350865483283997e-01 -5.5141873657703400e-02</leafValues></_>
        <_>
          <internalNodes>
            0 -1 905 1.3317110016942024e-02</internalNodes>
          <leafValues>
            5.0610162317752838e-02 -7.0457619428634644e-01</leafValues></_>
        <_>
          <internalNodes>
            0 -1 1237 -9.6665194723755121e-04</internalNodes>
          <leafValues>
            4.3853458762168884e-01 -6.8650811910629272e-02</leafValues></_>
        <_>
          <internalNodes>
            0 -1 548 -1.4259106479585171e-02</internalNodes>
          <leafValues>
            -6.3389754295349121e-01 4.6939074993133545e-02</leafValues></_>
        <_>
          <internalNodes>
            0 -1 819 -6.7061901791021228e-04</internalNodes>
          <leafValues>
            2.6500523090362549e-01 -1.0348147153854370e-01</leafValues></_>
        <_>
          <internalNodes>
            0 -1 270 7.1496856398880482e-03</internalNodes>
          <leafValues>
            -1.2481219321489334e-01 2.0411843061447144e-01</leafValues></_>
        <_>
          <internalNodes>
            0 -1 75 -3.0698003247380257e-03</internalNodes>
          <leafValues>
            4.6154260635375977e-01 -5.0649322569370270e-02</leafValues></_>
        <_>
          <internalNodes>
            0 -1 435 8.1649467349052429e-02</internalNodes>
          <leafValues>
            3.1354174017906189e-02 -8.9432251453399658e-01</leafValues></_>
        <_>
          <internalNodes>
            0 -1 349 2.8316345997154713e-03</internalNodes>
          <leafValues>
            5.2369985729455948e-02 -4.0978807210922241e-01</leafValues></_></weakClassifiers></_>
    <!-- stage 6 -->
    <_>
      <maxWeakCount>50</maxWeakCount>
      <stageThreshold>-1.0995644330978394e+00</stageThreshold>
      <weakClassifiers>
        <_>
          <internalNodes>
            0 -1 119 -8.4992028772830963e-02</internalNodes>
          <leafValues>
            7.2808033227920532e-01 3.3714454621076584e-02</leafValues></_>
        <_>
          <internalNodes>
            0 -1 4 2.7364067733287811e-02</internalNodes>
          <leafValues>
            -2.8105931356549263e-02 8.6943745613098145e-01</leafValues></_>
        <_>
          <internalNodes>
            0 -1 376 3.4683674573898315e-02</internalNodes>
          <leafValues>
            -2.0972825586795807e-01 3.4997352957725525e-01</leafValues></_>
        <_>
          <internalNodes>
            0 -1 425 -2.7354951947927475e-02</internalNodes>
          <leafValues>
            8.5325604677200317e-01 -4.8745445907115936e-02</leafValues></_>
        <_>
          <internalNodes>
            0 -1 196 -2.4962432682514191e-02</internalNodes>
          <leafValues>
            7.0203143358230591e-01 -7.6969735324382782e-02</leafValues></_>
        <_>
          <internalNodes>
            0 -1 843 -4.3957335874438286e-03</internalNodes>
          <leafValues>
            2.9837298393249512e-01 -1.7282688617706299e-01</leafValues></_>
        <_>
          <internalNodes>
            0 -1 812 1.8557466566562653e-02</internalNodes>
          <leafValues>
            8.4383219480514526e-02 -6.1054456233978271e-01</leafValues></_>
        <_>
          <internalNodes>
            0 -1 524 6.5131798386573792e-02</internalNodes>
          <leafValues>
            1.0151711106300354e-01 -4.3255424499511719e-01</leafValues></_>
        <_>
          <internalNodes>
            0 -1 1323 -1.8353220075368881e-03</internalNodes>
          <leafValues>
            2.5397741794586182e-01 -1.6961276531219482e-01</leafValues></_>
        <_>
          <internalNodes>
            0 -1 893 -1.1836655903607607e-03</internalNodes>
          <leafValues>
            1.5525768697261810e-01 -2.6445329189300537e-01</leafValues></_>
        <_>
          <internalNodes>
            0 -1 395 -1.4544783160090446e-02</internalNodes>
          <leafValues>
            -5.7827687263488770e-01 8.1542864441871643e-02</leafValues></_>
        <_>
          <internalNodes>
            0 -1 290 3.6794174462556839e-02</internalNodes>
          <leafValues>
            4.9959011375904083e-02 -6.4189118146896362e-01</leafValues></_>
        <_>
          <internalNodes>
            0 -1 359 -1.4697533100843430e-02</internalNodes>
          <leafValues>
            4.8411595821380615e-01 -8.0194942653179169e-02</leafValues></_>
        <_>
          <internalNodes>
            0 -1 740 -3.6170408129692078e-02</internalNodes>
          <leafValues>
            -5.8624243736267090e-01 5.6892432272434235e-02</leafValues></_>
        <_>
          <internalNodes>
            0 -1 828 7.6461303979158401e-03</internalNodes>
          <leafValues>
            8.0604396760463715e-02 -3.9300191402435303e-01</leafValues></_>
        <_>
          <internalNodes>
            0 -1 585 2.5940712541341782e-02</internalNodes>
          <leafValues>
            -5.1221858710050583e-02 6.9530755281448364e-01</leafValues></_>
        <_>
          <internalNodes>
            0 -1 80 4.7324192710220814e-03</internalNodes>
          <leafValues>
            -1.6268296539783478e-01 1.9182865321636200e-01</leafValues></_>
        <_>
          <internalNodes>
            0 -1 511 -9.0065253898501396e-03</internalNodes>
          <leafValues>
            -4.0518504381179810e-01 8.4552876651287079e-02</leafValues></_>
        <_>
          <internalNodes>
            0 -1 1166 4.6330648474395275e-03</internalNodes>
          <leafValues>
            4.9630738794803619e-02 -5.7407218217849731e-01</leafValues></_>
        <_>
          <internalNodes>
            0 -1 250 -3.6756753921508789e-02</internalNodes>
          <leafValues>
            7.9614764451980591e-01 -4.2248059064149857e-02</leafValues></_>
        <_>
          <internalNodes>
            0 -1 213 -3.2242971658706665e-01</internalNodes>
          <leafValues>
            4.9505048990249634e-01 -5.0615150481462479e-02</leafValues></_>
        <_>
          <internalNodes>
            0 -1 63 5.2122557535767555e-03</internalNodes>
          <leafValues>
            -5.3827162832021713e-02 4.8343893885612488e-01</leafValues></_>
        <_>
          <internalNodes>
            0 -1 306 -1.5461081638932228e-02</internalNodes>
          <leafValues>
            -3.9842143654823303e-01 7.3693580925464630e-02</leafValues></_>
        <_>
          <internalNodes>
            0 -1 621 4.8792813904583454e-03</internalNodes>
          <leafValues>
            5.9571839869022369e-02 -4.2151841521263123e-01</leafValues></_>
        <_>
          <internalNodes>
            0 -1 271 -1.1175669729709625e-02</internalNodes>
          <leafValues>
            -4.9643850326538086e-01 5.1552634686231613e-02</leafValues></_>
        <_>
          <internalNodes>
            0 -1 1321 -4.5013539493083954e-03</internalNodes>
          <leafValues>
            4.3086603283882141e-01 -6.7268870770931244e-02</leafValues></_>
        <_>
          <internalNodes>
            0 -1 997 5.7709611952304840e-02</internalNodes>
          <leafValues>
            3.7107314914464951e-02 -7.6779365539550781e-01</leafValues></_>
        <_>
          <internalNodes>
            0 -1 42 2.4484839290380478e-02</internalNodes>
          <leafValues>
            3.4364167600870132e-02 -6.0448533296585083e-01</leafValues></_>
        <_>
          <internalNodes>
            0 -1 188 1.6346925403922796e-03</internalNodes>
          <leafValues>
            -7.1586161851882935e-02 3.3825039863586426e-01</leafValues></_>
        <_>
          <internalNodes>
            0 -1 322 9.5388833433389664e-03</internalNodes>
          <leafValues>
            7.5404033064842224e-02 -3.2208833098411560e-01</leafValues></_>
        <_>
          <internalNodes>
            0 -1 495 1.1869117617607117e-02</internalNodes>
          <leafValues>
            -1.2208927422761917e-01 2.0419536530971527e-01</leafValues></_>
        <_>
          <internalNodes>
            0 -1 568 1.2602054513990879e-02</internalNodes>
          <leafValues>
            5.2897047251462936e-02 -4.4811305403709412e-01</leafValues></_>
        <_>
          <internalNodes>
            0 -1 952 2.5438554584980011e-02</internalNodes>
          <leafValues>
            5.3330276161432266e-02 -4.2670097947120667e-01</leafValues></_>
        <_>
          <internalNodes>
            0 -1 652 -9.7438646480441093e-04</internalNodes>
          <leafValues>
            2.7105003595352173e-01 -9.3160234391689301e-02</leafValues></_>
        <_>
          <internalNodes>
            0 -1 1020 1.5508518554270267e-03</internalNodes>
          <leafValues>
            -1.8529024720191956e-01 1.3936498761177063e-01</leafValues></_>
        <_>
          <internalNodes>
            0 -1 945 -1.3411682099103928e-02</internalNodes>
          <leafValues>
            3.0284026265144348e-01 -9.6292063593864441e-02</leafValues></_>
        <_>
          <internalNodes>
            0 -1 603 1.1198189109563828e-02</internalNodes>
          <leafValues>
            -4.3440520763397217e-02 5.0445926189422607e-01</leafValues></_>
        <_>
          <internalNodes>
            0 -1 939 -7.9092811793088913e-03</internalNodes>
          <leafValues>
            -6.2659668922424316e-01 4.0130637586116791e-02</leafValues></_>
        <_>
          <internalNodes>
            0 -1 651 1.9199266098439693e-03</internalNodes>
          <leafValues>
            -1.3197939097881317e-01 1.7780782282352448e-01</leafValues></_>
        <_>
          <internalNodes>
            0 -1 167 -1.5374879352748394e-02</internalNodes>
          <leafValues>
            -5.3193116188049316e-01 4.4896591454744339e-02</leafValues></_>
        <_>
          <internalNodes>
            0 -1 101 3.9467988535761833e-03</internalNodes>
          <leafValues>
            9.4801776111125946e-02 -2.3323503136634827e-01</leafValues></_>
        <_>
          <internalNodes>
            0 -1 1278 -1.8451433861628175e-03</internalNodes>
          <leafValues>
            3.1713303923606873e-01 -7.4804119765758514e-02</leafValues></_>
        <_>
          <internalNodes>
            0 -1 419 2.2992759943008423e-02</internalNodes>
          <leafValues>
            5.0338119268417358e-02 -4.7797220945358276e-01</leafValues></_>
        <_>
          <internalNodes>
            0 -1 134 3.7029499653726816e-03</internalNodes>
          <leafValues>
            -1.3133323192596436e-01 1.9832481443881989e-01</leafValues></_>
        <_>
          <internalNodes>
            0 -1 279 -5.6301420554518700e-03</internalNodes>
          <leafValues>
            -5.5006092786788940e-01 4.1745498776435852e-02</leafValues></_>
        <_>
          <internalNodes>
            0 -1 574 3.3804468810558319e-02</internalNodes>
          <leafValues>
            3.1832270324230194e-02 -6.0026121139526367e-01</leafValues></_>
        <_>
          <internalNodes>
            0 -1 450 6.5962061285972595e-02</internalNodes>
          <leafValues>
            2.5293363258242607e-02 -7.2629797458648682e-01</leafValues></_>
        <_>
          <internalNodes>
            0 -1 801 3.6243122071027756e-02</internalNodes>
          <leafValues>
            6.8706013262271881e-02 -2.8404220938682556e-01</leafValues></_>
        <_>
          <internalNodes>
            0 -1 1176 2.5086365640163422e-03</internalNodes>
          <leafValues>
            -6.0001231729984283e-02 3.6148574948310852e-01</leafValues></_>
        <_>
          <internalNodes>
            0 -1 1032 -9.2063527554273605e-03</internalNodes>
          <leafValues>
            -3.8118377327919006e-01 5.8345157653093338e-02</leafValues></_></weakClassifiers></_>
    <!-- stage 7 -->
    <_>
      <maxWeakCount>70</maxWeakCount>
      <stageThreshold>-1.0473687648773193e+00</stageThreshold>
      <weakClassifiers>
        <_>
          <internalNodes>
            0 -1 233 -1.9777406007051468e-02</internalNodes>
          <leafValues>
            8.5908317565917969e-01 2.0489422976970673e-01</leafValues></_>
        <_>
          <internalNodes>
            0 -1 209 1.8257278949022293e-02</internalNodes>
          <leafValues>
            -6.6613249480724335e-02 6.9909083843231201e-01</leafValues></_>
        <_>
          <internalNodes>
            0 -1 149 -2.1869067102670670e-02</internalNodes>
          <leafValues>
            6.9675815105438232e-01 -1.1082465946674347e-01</leafValues></_>
        <_>
          <internalNodes>
            0 -1 640 1.5827715396881104e-02</internalNodes>
          <leafValues>
            -2.5490188598632812e-01 2.1251410245895386e-01</leafValues></_>
        <_>
          <internalNodes>
            0 -1 583 1.7763413488864899e-02</internalNodes>
          <leafValues>
            -7.3588289320468903e-02 7.7265787124633789e-01</leafValues></_>
        <_>
          <internalNodes>
            0 -1 253 -1.7342489212751389e-02</internalNodes>
          <leafValues>
            6.2094372510910034e-01 -9.6630133688449860e-02</leafValues></_>
        <_>
          <internalNodes>
            0 -1 31 2.0262185484170914e-02</internalNodes>
          <leafValues>
            -1.3987194001674652e-01 2.7714857459068298e-01</leafValues></_>
        <_>
          <internalNodes>
            0 -1 578 1.2336196377873421e-02</internalNodes>
          <leafValues>
            -6.8589612841606140e-02 5.7982242107391357e-01</leafValues></_>
        <_>
          <internalNodes>
            0 -1 814 1.2648906558752060e-02</internalNodes>
          <leafValues>
            8.5879266262054443e-02 -4.1981434822082520e-01</leafValues></_>
        <_>
          <internalNodes>
            0 -1 1061 -5.9285429306328297e-03</internalNodes>
          <leafValues>
            4.4755372405052185e-01 -8.4054261445999146e-02</leafValues></_>
        <_>
          <internalNodes>
            0 -1 1220 1.6096194740384817e-03</internalNodes>
          <leafValues>
            -7.5488798320293427e-02 3.8661584258079529e-01</leafValues></_>
        <_>
          <internalNodes>
            0 -1 62 1.6600200906395912e-03</internalNodes>
          <leafValues>
            -7.5296327471733093e-02 3.6481603980064392e-01</leafValues></_>
        <_>
          <internalNodes>
            0 -1 62 -2.1349957678467035e-03</internalNodes>
          <leafValues>
            4.4007122516632080e-01 -8.2567028701305389e-02</leafValues></_>
        <_>
          <internalNodes>
            0 -1 743 2.4413508363068104e-03</internalNodes>
          <leafValues>
            7.4787087738513947e-02 -4.1412845253944397e-01</leafValues></_>
        <_>
          <internalNodes>
            0 -1 983 1.0503603145480156e-02</internalNodes>
          <leafValues>
            -1.5485087037086487e-01 1.8460373580455780e-01</leafValues></_>
        <_>
          <internalNodes>
            0 -1 858 1.0719073936343193e-02</internalNodes>
          <leafValues>
            8.1148944795131683e-02 -3.3410823345184326e-01</leafValues></_>
        <_>
          <internalNodes>
            0 -1 1283 -1.8695734906941652e-03</internalNodes>
          <leafValues>
            3.7932246923446655e-01 -7.2922460734844208e-02</leafValues></_>
        <_>
          <internalNodes>
            0 -1 1303 -2.4428518954664469e-03</internalNodes>
          <leafValues>
            4.6845826506614685e-01 -5.5619750171899796e-02</leafValues></_>
        <_>
          <internalNodes>
            0 -1 780 -5.8893887326121330e-03</internalNodes>
          <leafValues>
            5.2050858736038208e-01 -4.2237684130668640e-02</leafValues></_>
        <_>
          <internalNodes>
            0 -1 439 2.9644936323165894e-02</internalNodes>
          <leafValues>
            -1.4730596542358398e-01 1.6559657454490662e-01</leafValues></_>
        <_>
          <internalNodes>
            0 -1 482 -7.4465004727244377e-03</internalNodes>
          <leafValues>
            -4.9287718534469604e-01 6.5436862409114838e-02</leafValues></_>
        <_>
          <internalNodes>
            0 -1 282 -2.5620171800255775e-03</internalNodes>
          <leafValues>
            4.8288816213607788e-01 -5.2618976682424545e-02</leafValues></_>
        <_>
          <internalNodes>
            0 -1 424 -4.8302426002919674e-03</internalNodes>
          <leafValues>
            4.9557358026504517e-01 -4.1996791958808899e-02</leafValues></_>
        <_>
          <internalNodes>
            0 -1 512 -1.0174153372645378e-02</internalNodes>
          <leafValues>
            -2.8983762860298157e-01 8.4470577538013458e-02</leafValues></_>
        <_>
          <internalNodes>
            0 -1 671 3.8279897999018431e-03</internalNodes>
          <leafValues>
            6.8076409399509430e-02 -3.9066812396049500e-01</leafValues></_>
        <_>
          <internalNodes>
            0 -1 588 1.8902876181527972e-03</internalNodes>
          <leafValues>
            -6.6664941608905792e-02 3.7790185213088989e-01</leafValues></_>
        <_>
          <internalNodes>
            0 -1 1334 -2.2550333291292191e-02</internalNodes>
          <leafValues>
            8.2525283098220825e-01 -2.5162965059280396e-02</leafValues></_>
        <_>
          <internalNodes>
            0 -1 681 -4.6000336296856403e-03</internalNodes>
          <leafValues>
            -4.1446754336357117e-01 5.7304888963699341e-02</leafValues></_>
        <_>
          <internalNodes>
            0 -1 553 -4.2366785928606987e-03</internalNodes>
          <leafValues>
            -3.0375167727470398e-01 6.7043453454971313e-02</leafValues></_>
        <_>
          <internalNodes>
            0 -1 771 -6.4965607598423958e-03</internalNodes>
          <leafValues>
            4.0740996599197388e-01 -4.9799218773841858e-02</leafValues></_>
        <_>
          <internalNodes>
            0 -1 938 -1.5614533331245184e-03</internalNodes>
          <leafValues>
            -2.4461270868778229e-01 7.9099029302597046e-02</leafValues></_>
        <_>
          <internalNodes>
            0 -1 829 -8.4047974087297916e-04</internalNodes>
          <leafValues>
            2.2833985090255737e-01 -8.6254298686981201e-02</leafValues></_>
        <_>
          <internalNodes>
            0 -1 470 -3.4824430942535400e-02</internalNodes>
          <leafValues>
            -3.9526027441024780e-01 6.2555812299251556e-02</leafValues></_>
        <_>
          <internalNodes>
            0 -1 562 -1.5652456786483526e-03</internalNodes>
          <leafValues>
            2.1680071949958801e-01 -1.0481409728527069e-01</leafValues></_>
        <_>
          <internalNodes>
            0 -1 906 -7.2751595871523023e-04</internalNodes>
          <leafValues>
            2.5853288173675537e-01 -9.5298714935779572e-02</leafValues></_>
        <_>
          <internalNodes>
            0 -1 99 -3.8844682276248932e-02</internalNodes>
          <leafValues>
            -6.6755932569503784e-01 3.4084122627973557e-02</leafValues></_>
        <_>
          <internalNodes>
            0 -1 347 1.6623161733150482e-02</internalNodes>
          <leafValues>
            3.0738819390535355e-02 -6.3483488559722900e-01</leafValues></_>
        <_>
          <internalNodes>
            0 -1 513 8.6734015494585037e-03</internalNodes>
          <leafValues>
            -1.2828776240348816e-01 1.6177344322204590e-01</leafValues></_>
        <_>
          <internalNodes>
            0 -1 823 1.2263692915439606e-02</internalNodes>
          <leafValues>
            6.7485414445400238e-02 -2.9794606566429138e-01</leafValues></_>
        <_>
          <internalNodes>
            0 -1 181 -1.1264274362474680e-03</internalNodes>
          <leafValues>
            2.5646403431892395e-01 -7.5138643383979797e-02</leafValues></_>
        <_>
          <internalNodes>
            0 -1 105 6.8289167247712612e-03</internalNodes>
          <leafValues>
            -8.6553454399108887e-02 2.1932844817638397e-01</leafValues></_>
        <_>
          <internalNodes>
            0 -1 897 7.6621212065219879e-03</internalNodes>
          <leafValues>
            5.2691169083118439e-02 -3.7292116880416870e-01</leafValues></_>
        <_>
          <internalNodes>
            0 -1 546 1.4063601847738028e-03</internalNodes>
          <leafValues>
            -6.3154831528663635e-02 3.3093622326850891e-01</leafValues></_>
        <_>
          <internalNodes>
            0 -1 399 -7.5822649523615837e-03</internalNodes>
          <leafValues>
            -5.2481508255004883e-01 4.2620904743671417e-02</leafValues></_>
        <_>
          <internalNodes>
            0 -1 362 -2.1076058968901634e-02</internalNodes>
          <leafValues>
            3.1628650426864624e-01 -6.2035854905843735e-02</leafValues></_>
        <_>
          <internalNodes>
            0 -1 1302 -3.1187492422759533e-03</internalNodes>
          <leafValues>
            1.4743924140930176e-01 -1.3456381857395172e-01</leafValues></_>
        <_>
          <internalNodes>
            0 -1 472 5.1406375132501125e-03</internalNodes>
          <leafValues>
            8.5419297218322754e-02 -2.3763719201087952e-01</leafValues></_>
        <_>
          <internalNodes>
            0 -1 277 -2.0479403436183929e-02</internalNodes>
          <leafValues>
            6.9739949703216553e-01 -2.7580596506595612e-02</leafValues></_>
        <_>
          <internalNodes>
            0 -1 537 -6.8534072488546371e-04</internalNodes>
          <leafValues>
            2.1301656961441040e-01 -8.3541437983512878e-02</leafValues></_>
        <_>
          <internalNodes>
            0 -1 1021 -2.8009608387947083e-02</internalNodes>
          <leafValues>
            -3.8817530870437622e-01 5.2738700062036514e-02</leafValues></_>
        <_>
          <internalNodes>
            0 -1 1347 1.9309301860630512e-03</internalNodes>
          <leafValues>
            -5.8008715510368347e-02 3.4684392809867859e-01</leafValues></_>
        <_>
          <internalNodes>
            0 -1 468 3.0024203006178141e-03</internalNodes>
          <leafValues>
            6.4525097608566284e-02 -3.0604922771453857e-01</leafValues></_>
        <_>
          <internalNodes>
            0 -1 655 1.1452862992882729e-02</internalNodes>
          <leafValues>
            -6.3842475414276123e-02 3.1703087687492371e-01</leafValues></_>
        <_>
          <internalNodes>
            0 -1 1026 3.8329192902892828e-03</internalNodes>
          <leafValues>
            -1.0676818341016769e-01 1.8057647347450256e-01</leafValues></_>
        <_>
          <internalNodes>
            0 -1 427 -4.2219450697302818e-03</internalNodes>
          <leafValues>
            2.8247573971748352e-01 -6.7663289606571198e-02</leafValues></_>
        <_>
          <internalNodes>
            0 -1 1100 1.9274283200502396e-02</internalNodes>
          <leafValues>
            7.3676943778991699e-02 -2.5869956612586975e-01</leafValues></_>
        <_>
          <internalNodes>
            0 -1 1165 -2.3272866383194923e-02</internalNodes>
          <leafValues>
            -3.4717905521392822e-01 5.4884113371372223e-02</leafValues></_>
        <_>
          <internalNodes>
            0 -1 1079 2.7767797000706196e-03</internalNodes>
          <leafValues>
            -3.7740014493465424e-02 4.6090549230575562e-01</leafValues></_>
        <_>
          <internalNodes>
            0 -1 1186 -4.2323381640017033e-03</internalNodes>
          <leafValues>
            -2.6013895869255066e-01 6.7990437150001526e-02</leafValues></_>
        <_>
          <internalNodes>
            0 -1 748 -5.2385323215276003e-04</internalNodes>
          <leafValues>
            2.0234467089176178e-01 -8.8575989007949829e-02</leafValues></_>
        <_>
          <internalNodes>
            0 -1 74 7.6180268079042435e-03</internalNodes>
          <leafValues>
            8.3117417991161346e-02 -2.1485850214958191e-01</leafValues></_>
        <_>
          <internalNodes>
            0 -1 1170 7.8571372432634234e-04</internalNodes>
          <leafValues>
            -7.6883986592292786e-02 2.2467167675495148e-01</leafValues></_>
        <_>
          <internalNodes>
            0 -1 1292 3.0158562585711479e-03</internalNodes>
          <leafValues>
            -5.8877728879451752e-02 2.9917025566101074e-01</leafValues></_>
        <_>
          <internalNodes>
            0 -1 1118 8.9138541370630264e-03</internalNodes>
          <leafValues>
            4.1443441063165665e-02 -4.6127906441688538e-01</leafValues></_>
        <_>
          <internalNodes>
            0 -1 116 2.9668868519365788e-03</internalNodes>
          <leafValues>
            9.0393178164958954e-02 -1.9999618828296661e-01</leafValues></_>
        <_>
          <internalNodes>
            0 -1 1131 -3.1245080754160881e-03</internalNodes>
          <leafValues>
            2.0584064722061157e-01 -9.9360264837741852e-02</leafValues></_>
        <_>
          <internalNodes>
            0 -1 1222 1.5904895262792706e-03</internalNodes>
          <leafValues>
            -1.1786265671253204e-01 2.3223637044429779e-01</leafValues></_>
        <_>
          <internalNodes>
            0 -1 1217 4.2820884846150875e-03</internalNodes>
          <leafValues>
            5.8667916804552078e-02 -3.4541785717010498e-01</leafValues></_>
        <_>
          <internalNodes>
            0 -1 923 -5.3497886983677745e-04</internalNodes>
          <leafValues>
            2.0977647602558136e-01 -9.2291519045829773e-02</leafValues></_>
        <_>
          <internalNodes>
            0 -1 705 2.0866312552243471e-03</internalNodes>
          <leafValues>
            -1.3163681328296661e-01 1.4184896647930145e-01</leafValues></_></weakClassifiers></_>
    <!-- stage 8 -->
    <_>
      <maxWeakCount>63</maxWeakCount>
      <stageThreshold>-1.0493245124816895e+00</stageThreshold>
      <weakClassifiers>
        <_>
          <internalNodes>
            0 -1 1312 -2.3534411564469337e-02</internalNodes>
          <leafValues>
            7.3515552282333374e-01 1.1346054822206497e-01</leafValues></_>
        <_>
          <internalNodes>
            0 -1 632 -5.7669491507112980e-03</internalNodes>
          <leafValues>
            -3.7582322955131531e-01 2.8076773881912231e-01</leafValues></_>
        <_>
          <internalNodes>
            0 -1 19 2.2653721272945404e-02</internalNodes>
          <leafValues>
            -1.0640016943216324e-01 7.9777795076370239e-01</leafValues></_>
        <_>
          <internalNodes>
            0 -1 44 -2.3345984518527985e-02</internalNodes>
          <leafValues>
            7.5361174345016479e-01 -1.0148299485445023e-01</leafValues></_>
        <_>
          <internalNodes>
            0 -1 494 4.7296769917011261e-03</internalNodes>
          <leafValues>
            1.2502367794513702e-01 -5.9819579124450684e-01</leafValues></_>
        <_>
          <internalNodes>
            0 -1 834 6.7080613225698471e-03</internalNodes>
          <leafValues>
            7.3502711951732635e-02 -5.5668646097183228e-01</leafValues></_>
        <_>
          <internalNodes>
            0 -1 645 3.7709355819970369e-03</internalNodes>
          <leafValues>
            6.7915476858615875e-02 -4.9624377489089966e-01</leafValues></_>
        <_>
          <internalNodes>
            0 -1 160 -1.0219177231192589e-02</internalNodes>
          <leafValues>
            6.1250275373458862e-01 -6.0448586940765381e-02</leafValues></_>
        <_>
          <internalNodes>
            0 -1 52 -2.5810722261667252e-02</internalNodes>
          <leafValues>
            -5.9345835447311401e-01 6.2612093985080719e-02</leafValues></_>
        <_>
          <internalNodes>
            0 -1 475 8.6292084306478500e-03</internalNodes>
          <leafValues>
            6.3829421997070312e-02 -5.3417462110519409e-01</leafValues></_>
        <_>
          <internalNodes>
            0 -1 1337 5.1069338805973530e-03</internalNodes>
          <leafValues>
            -6.7140631377696991e-02 5.4248738288879395e-01</leafValues></_>
        <_>
          <internalNodes>
            0 -1 67 2.6057545095682144e-02</internalNodes>
          <leafValues>
            -1.0841915756464005e-01 2.6345077157020569e-01</leafValues></_>
        <_>
          <internalNodes>
            0 -1 900 -7.6620886102318764e-03</internalNodes>
          <leafValues>
            -3.4837296605110168e-01 7.7310450375080109e-02</leafValues></_>
        <_>
          <internalNodes>
            0 -1 1343 -2.9868376441299915e-03</internalNodes>
          <leafValues>
            4.5297953486442566e-01 -6.6892199218273163e-02</leafValues></_>
        <_>
          <internalNodes>
            0 -1 2 1.9789755344390869e-02</internalNodes>
          <leafValues>
            -1.3815076649188995e-01 1.9558131694793701e-01</leafValues></_>
        <_>
          <internalNodes>
            0 -1 267 3.5411607474088669e-02</internalNodes>
          <leafValues>
            4.9125459045171738e-02 -5.9879219532012939e-01</leafValues></_>
        <_>
          <internalNodes>
            0 -1 1264 3.2335922122001648e-02</internalNodes>
          <leafValues>
            -3.1069509685039520e-02 8.7774974107742310e-01</leafValues></_>
        <_>
          <internalNodes>
            0 -1 1276 -2.2856565192341805e-03</internalNodes>
          <leafValues>
            3.1070193648338318e-01 -8.4433235228061676e-02</leafValues></_>
        <_>
          <internalNodes>
            0 -1 695 -2.2409185767173767e-02</internalNodes>
          <leafValues>
            -3.3872550725936890e-01 7.6725639402866364e-02</leafValues></_>
        <_>
          <internalNodes>
            0 -1 151 2.1687866747379303e-01</internalNodes>
          <leafValues>
            4.3743096292018890e-02 -5.3924012184143066e-01</leafValues></_>
        <_>
          <internalNodes>
            0 -1 221 -1.4340264024212956e-03</internalNodes>
          <leafValues>
            -2.4869322776794434e-01 9.3161232769489288e-02</leafValues></_>
        <_>
          <internalNodes>
            0 -1 505 6.2932157889008522e-03</internalNodes>
          <leafValues>
            -1.1241926252841949e-01 2.1872650086879730e-01</leafValues></_>
        <_>
          <internalNodes>
            0 -1 274 4.9771675840020180e-03</internalNodes>
          <leafValues>
            4.1778840124607086e-02 -5.2342116832733154e-01</leafValues></_>
        <_>
          <internalNodes>
            0 -1 1035 9.2500187456607819e-03</internalNodes>
          <leafValues>
            6.1087179929018021e-02 -3.6057201027870178e-01</leafValues></_>
        <_>
          <internalNodes>
            0 -1 1364 -3.8846214301884174e-03</internalNodes>
          <leafValues>
            4.6484071016311646e-01 -5.1446668803691864e-02</leafValues></_>
        <_>
          <internalNodes>
            0 -1 165 2.2445202339440584e-03</internalNodes>
          <leafValues>
            6.5572820603847504e-02 -3.0612927675247192e-01</leafValues></_>
        <_>
          <internalNodes>
            0 -1 591 8.5435230284929276e-03</internalNodes>
          <leafValues>
            -8.4108345210552216e-02 2.5664973258972168e-01</leafValues></_>
        <_>
          <internalNodes>
            0 -1 192 -2.4594638962298632e-03</internalNodes>
          <leafValues>
            -2.4422882497310638e-01 8.7238669395446777e-02</leafValues></_>
        <_>
          <internalNodes>
            0 -1 853 2.0045377314090729e-03</internalNodes>
          <leafValues>
            -6.5444074571132660e-02 3.1647390127182007e-01</leafValues></_>
        <_>
          <internalNodes>
            0 -1 667 8.8519009295850992e-04</internalNodes>
          <leafValues>
            8.3093442022800446e-02 -2.5451058149337769e-01</leafValues></_>
        <_>
          <internalNodes>
            0 -1 1361 4.4336691498756409e-03</internalNodes>
          <leafValues>
            -5.4661519825458527e-02 3.9510646462440491e-01</leafValues></_>
        <_>
          <internalNodes>
            0 -1 1247 -9.9240802228450775e-04</internalNodes>
          <leafValues>
            2.4489551782608032e-01 -8.5534177720546722e-02</leafValues></_>
        <_>
          <internalNodes>
            0 -1 544 6.6659739241003990e-03</internalNodes>
          <leafValues>
            6.2675587832927704e-02 -3.1000462174415588e-01</leafValues></_>
        <_>
          <internalNodes>
            0 -1 451 -8.1861168146133423e-02</internalNodes>
          <leafValues>
            -1.7378173768520355e-01 1.2149392068386078e-01</leafValues></_>
        <_>
          <internalNodes>
            0 -1 1286 5.7002678513526917e-03</internalNodes>
          <leafValues>
            4.5259822160005569e-02 -4.2501133680343628e-01</leafValues></_>
        <_>
          <internalNodes>
            0 -1 551 -6.1366437003016472e-03</internalNodes>
          <leafValues>
            -4.6026220917701721e-01 4.0625151246786118e-02</leafValues></_>
        <_>
          <internalNodes>
            0 -1 1213 -1.3270999770611525e-03</internalNodes>
          <leafValues>
            2.6857900619506836e-01 -7.3270358145236969e-02</leafValues></_>
        <_>
          <internalNodes>
            0 -1 1282 2.7268573641777039e-02</internalNodes>
          <leafValues>
            4.1527081280946732e-02 -4.6646070480346680e-01</leafValues></_>
        <_>
          <internalNodes>
            0 -1 896 1.5077773481607437e-02</internalNodes>
          <leafValues>
            -2.8501300141215324e-02 7.1875739097595215e-01</leafValues></_>
        <_>
          <internalNodes>
            0 -1 901 -1.3347225030884147e-03</internalNodes>
          <leafValues>
            2.8499427437782288e-01 -6.2889680266380310e-02</leafValues></_>
        <_>
          <internalNodes>
            0 -1 892 2.9042403912171721e-04</internalNodes>
          <leafValues>
            9.0176053345203400e-02 -2.0812912285327911e-01</leafValues></_>
        <_>
          <internalNodes>
            0 -1 559 -6.1387866735458374e-03</internalNodes>
          <leafValues>
            -2.5591090321540833e-01 7.6432324945926666e-02</leafValues></_>
        <_>
          <internalNodes>
            0 -1 880 1.6392989084124565e-02</internalNodes>
          <leafValues>
            5.2974980324506760e-02 -3.3757227659225464e-01</leafValues></_>
        <_>
          <internalNodes>
            0 -1 484 6.8654660135507584e-03</internalNodes>
          <leafValues>
            8.5725352168083191e-02 -2.1697306632995605e-01</leafValues></_>
        <_>
          <internalNodes>
            0 -1 756 -3.2618567347526550e-02</internalNodes>
          <leafValues>
            -3.7489882111549377e-01 4.9586709588766098e-02</leafValues></_>
        <_>
          <internalNodes>
            0 -1 163 -1.0993668809533119e-02</internalNodes>
          <leafValues>
            4.0372312068939209e-01 -4.4613093137741089e-02</leafValues></_>
        <_>
          <internalNodes>
            0 -1 40 5.0405655056238174e-03</internalNodes>
          <leafValues>
            -1.0918863117694855e-01 1.7812268435955048e-01</leafValues></_>
        <_>
          <internalNodes>
            0 -1 912 2.3540155962109566e-03</internalNodes>
          <leafValues>
            3.8904484361410141e-02 -4.3702140450477600e-01</leafValues></_>
        <_>
          <internalNodes>
            0 -1 139 -1.6326211392879486e-02</internalNodes>
          <leafValues>
            4.2847552895545959e-01 -4.3331071734428406e-02</leafValues></_>
        <_>
          <internalNodes>
            0 -1 701 1.1073654750362039e-03</internalNodes>
          <leafValues>
            -1.4362733066082001e-01 1.2084750831127167e-01</leafValues></_>
        <_>
          <internalNodes>
            0 -1 1324 2.4534612894058228e-03</internalNodes>
          <leafValues>
            -3.2650306820869446e-02 5.6521707773208618e-01</leafValues></_>
        <_>
          <internalNodes>
            0 -1 320 1.5222918987274170e-01</internalNodes>
          <leafValues>
            -4.6460416167974472e-02 3.7095105648040771e-01</leafValues></_>
        <_>
          <internalNodes>
            0 -1 254 6.1297795036807656e-04</internalNodes>
          <leafValues>
            8.2193687558174133e-02 -2.2542485594749451e-01</leafValues></_>
        <_>
          <internalNodes>
            0 -1 339 6.9724060595035553e-02</internalNodes>
          <leafValues>
            -2.6248911395668983e-02 7.8796261548995972e-01</leafValues></_>
        <_>
          <internalNodes>
            0 -1 53 -1.0974614415317774e-03</internalNodes>
          <leafValues>
            3.0889719724655151e-01 -5.4482184350490570e-02</leafValues></_>
        <_>
          <internalNodes>
            0 -1 779 -1.6297830734401941e-03</internalNodes>
          <leafValues>
            2.9685819149017334e-01 -6.2684357166290283e-02</leafValues></_>
        <_>
          <internalNodes>
            0 -1 1353 5.9869317337870598e-03</internalNodes>
          <leafValues>
            -3.1904097646474838e-02 5.9441238641738892e-01</leafValues></_>
        <_>
          <internalNodes>
            0 -1 287 -1.2796803377568722e-02</internalNodes>
          <leafValues>
            -4.3072348833084106e-01 4.8138104379177094e-02</leafValues></_>
        <_>
          <internalNodes>
            0 -1 1067 8.7033060844987631e-04</internalNodes>
          <leafValues>
            6.7918151617050171e-02 -2.4855504930019379e-01</leafValues></_>
        <_>
          <internalNodes>
            0 -1 675 -2.4996991269290447e-03</internalNodes>
          <leafValues>
            2.2100158035755157e-01 -9.0208977460861206e-02</leafValues></_>
        <_>
          <internalNodes>
            0 -1 594 -7.2972867637872696e-03</internalNodes>
          <leafValues>
            2.5764092803001404e-01 -6.9910518825054169e-02</leafValues></_>
        <_>
          <internalNodes>
            0 -1 1071 -4.4659515842795372e-03</internalNodes>
          <leafValues>
            -3.7468257546424866e-01 4.9317412078380585e-02</leafValues></_>
        <_>
          <internalNodes>
            0 -1 96 8.3154439926147461e-03</internalNodes>
          <leafValues>
            2.7271227911114693e-02 -5.7525640726089478e-01</leafValues></_></weakClassifiers></_>
    <!-- stage 9 -->
    <_>
      <maxWeakCount>61</maxWeakCount>
      <stageThreshold>-1.0172879695892334e+00</stageThreshold>
      <weakClassifiers>
        <_>
          <internalNodes>
            0 -1 737 -1.7713953275233507e-03</internalNodes>
          <leafValues>
            -4.1732698678970337e-02 5.0620889663696289e-01</leafValues></_>
        <_>
          <internalNodes>
            0 -1 18 2.7087770402431488e-02</internalNodes>
          <leafValues>
            -5.6705653667449951e-02 8.3688306808471680e-01</leafValues></_>
        <_>
          <internalNodes>
            0 -1 251 -3.9535187184810638e-02</internalNodes>
          <leafValues>
            8.6497217416763306e-01 -8.9053541421890259e-02</leafValues></_>
        <_>
          <internalNodes>
            0 -1 429 -3.1071875244379044e-02</internalNodes>
          <leafValues>
            7.8252047300338745e-01 -4.2999360710382462e-02</leafValues></_>
        <_>
          <internalNodes>
            0 -1 408 1.5537267550826073e-02</internalNodes>
          <leafValues>
            9.5126539468765259e-02 -6.2899917364120483e-01</leafValues></_>
        <_>
          <internalNodes>
            0 -1 199 -3.2911725342273712e-02</internalNodes>
          <leafValues>
            8.3237135410308838e-01 -8.8442094624042511e-02</leafValues></_>
        <_>
          <internalNodes>
            0 -1 273 -2.0327183604240417e-01</internalNodes>
          <leafValues>
            3.5003373026847839e-01 -1.4489942789077759e-01</leafValues></_>
        <_>
          <internalNodes>
            0 -1 1014 3.4193177707493305e-03</internalNodes>
          <leafValues>
            9.0909548103809357e-02 -4.8465135693550110e-01</leafValues></_>
        <_>
          <internalNodes>
            0 -1 226 -5.2958140149712563e-03</internalNodes>
          <leafValues>
            -4.0049368143081665e-01 9.0521782636642456e-02</leafValues></_>
        <_>
          <internalNodes>
            0 -1 491 -7.1211783215403557e-03</internalNodes>
          <leafValues>
            -4.2298153042793274e-01 8.0153934657573700e-02</leafValues></_>
        <_>
          <internalNodes>
            0 -1 550 1.3114711269736290e-02</internalNodes>
          <leafValues>
            9.0683475136756897e-02 -3.7057822942733765e-01</leafValues></_>
        <_>
          <internalNodes>
            0 -1 0 -2.5416631251573563e-02</internalNodes>
          <leafValues>
            8.2784563302993774e-01 -4.4489301741123199e-02</leafValues></_>
        <_>
          <internalNodes>
            0 -1 713 6.7303571850061417e-03</internalNodes>
          <leafValues>
            7.1384616196155548e-02 -4.9147382378578186e-01</leafValues></_>
        <_>
          <internalNodes>
            0 -1 443 2.5700422003865242e-02</internalNodes>
          <leafValues>
            -4.4747747480869293e-02 6.5673774480819702e-01</leafValues></_>
        <_>
          <internalNodes>
            0 -1 210 -4.4630140066146851e-02</internalNodes>
          <leafValues>
            8.1382322311401367e-01 -3.4236900508403778e-02</leafValues></_>
        <_>
          <internalNodes>
            0 -1 1184 1.4594541862607002e-03</internalNodes>
          <leafValues>
            1.0943930596113205e-01 -2.7286526560783386e-01</leafValues></_>
        <_>
          <internalNodes>
            0 -1 1139 5.3087323904037476e-03</internalNodes>
          <leafValues>
            6.7823283374309540e-02 -3.7721231579780579e-01</leafValues></_>
        <_>
          <internalNodes>
            0 -1 902 -8.5997045971453190e-04</internalNodes>
          <leafValues>
            2.1786993741989136e-01 -1.1997683346271515e-01</leafValues></_>
        <_>
          <internalNodes>
            0 -1 79 1.5733018517494202e-02</internalNodes>
          <leafValues>
            -1.1600367724895477e-01 2.2423498332500458e-01</leafValues></_>
        <_>
          <internalNodes>
            0 -1 330 -6.8824118934571743e-03</internalNodes>
          <leafValues>
            -3.9209800958633423e-01 6.5545000135898590e-02</leafValues></_>
        <_>
          <internalNodes>
            0 -1 856 3.2897323835641146e-03</internalNodes>
          <leafValues>
            6.2033906579017639e-02 -3.7803110480308533e-01</leafValues></_>
        <_>
          <internalNodes>
            0 -1 1298 9.5699019730091095e-03</internalNodes>
          <leafValues>
            7.8876949846744537e-02 -3.0636283755302429e-01</leafValues></_>
        <_>
          <internalNodes>
            0 -1 1296 -1.8978920998051763e-03</internalNodes>
          <leafValues>
            3.5432216525077820e-01 -7.1100220084190369e-02</leafValues></_>
        <_>
          <internalNodes>
            0 -1 238 5.5681355297565460e-03</internalNodes>
          <leafValues>
            6.3232265412807465e-02 -3.9002516865730286e-01</leafValues></_>
        <_>
          <internalNodes>
            0 -1 847 -1.0248485952615738e-02</internalNodes>
          <leafValues>
            -3.0421915650367737e-01 8.0333411693572998e-02</leafValues></_>
        <_>
          <internalNodes>
            0 -1 916 -1.5339299570769072e-03</internalNodes>
          <leafValues>
            3.3523085713386536e-01 -7.0187479257583618e-02</leafValues></_>
        <_>
